{"learner":{"attributes":{},"feature_names":["activity_span_days","total_interactions","unique_products","view_count","total_weight","view_to_purchase_ratio","cart_count","cart_to_purchase_ratio","cart_abandonment_rate","wishlist_count","interactions_per_day","wishlist_to_purchase_ratio"],"feature_types":["int","int","int","int","int","float","int","float","float","int","float","float"],"gradient_booster":{"model":{"gbtree_model_param":{"num_parallel_tree":"1","num_trees":"300"},"iteration_indptr":[0,1,2,3,4,5,6,7,8,9,10,11,12,13,14,15,16,17,18,19,20,21,22,23,24,25,26,27,28,29,30,31,32,33,34,35,36,37,38,39,40,41,42,43,44,45,46,47,48,49,50,51,52,53,54,55,56,57,58,59,60,61,62,63,64,65,66,67,68,69,70,71,72,73,74,75,76,77,78,79,80,81,82,83,84,85,86,87,88,89,90,91,92,93,94,95,96,97,98,99,100,101,102,103,104,105,106,107,108,109,110,111,112,113,114,115,116,117,118,119,120,121,122,123,124,125,126,127,128,129,130,131,132,133,134,135,136,137,138,139,140,141,142,143,144,145,146,147,148,149,150,151,152,153,154,155,156,157,158,159,160,161,162,163,164,165,166,167,168,169,170,171,172,173,174,175,176,177,178,179,180,181,182,183,184,185,186,187,188,189,190,191,192,193,194,195,196,197,198,199,200,201,202,203,204,205,206,207,208,209,210,211,212,213,214,215,216,217,218,219,220,221,222,223,224,225,226,227,228,229,230,231,232,233,234,235,236,237,238,239,240,241,242,243,244,245,246,247,248,249,250,251,252,253,254,255,256,257,258,259,260,261,262,263,264,265,266,267,268,269,270,271,272,273,274,275,276,277,278,279,280,281,282,283,284,285,286,287,288,289,290,291,292,293,294,295,296,297,298,299,300],"tree_info":[0,0,0,0,0,0,0,0,0,0,0,0,0,0,0,0,0,0,0,0,0,0,0,0,0,0,0,0,0,0,0,0,0,0,0,0,0,0,0,0,0,0,0,0,0,0,0,0,0,0,0,0,0,0,0,0,0,0,0,0,0,0,0,0,0,0,0,0,0,0,0,0,0,0,0,0,0,0,0,0,0,0,0,0,0,0,0,0,0,0,0,0,0,0,0,0,0,0,0,0,0,0,0,0,0,0,0,0,0,0,0,0,0,0,0,0,0,0,0,0,0,0,0,0,0,0,0,0,0,0,0,0,0,0,0,0,0,0,0,0,0,0,0,0,0,0,0,0,0,0,0,0,0,0,0,0,0,0,0,0,0,0,0,0,0,0,0,0,0,0,0,0,0,0,0,0,0,0,0,0,0,0,0,0,0,0,0,0,0,0,0,0,0,0,0,0,0,0,0,0,0,0,0,0,0,0,0,0,0,0,0,0,0,0,0,0,0,0,0,0,0,0,0,0,0,0,0,0,0,0,0,0,0,0,0,0,0,0,0,0,0,0,0,0,0,0,0,0,0,0,0,0,0,0,0,0,0,0,0,0,0,0,0,0,0,0,0,0,0,0,0,0,0,0,0,0,0,0,0,0,0,0,0,0,0,0,0,0,0,0,0,0,0,0,0,0,0,0,0,0],"trees":[{"base_weights":[1.6749235E-2,6.8229204E-1,-1.2347094E0,9.422898E-1,1.342233E-1,-7.1579224E-1,-1.740264E0,1.1531785E-2,7.457122E-3,-7.364158E-4,2.10222E-3,-4.506382E-3,-8.8790115E-3,-1.4380507E-2,-1.9455224E-2],"categories":[],"categories_nodes":[],"categories_segments":[],"categories_sizes":[],"default_left":[0,0,0,0,0,0,0,0,0,0,0,0,0,0,0],"id":0,"left_children":[1,3,5,7,9,11,13,-1,-1,-1,-1,-1,-1,-1,-1],"loss_changes":[6.051757E2,6.739766E1,6.431067E1,1.2036072E1,2.4617064E0,5.19709E0,3.6645813E0,0E0,0E0,0E0,0E0,0E0,0E0,0E0,0E0],"parents":[2147483647,0,0,1,1,2,2,3,3,4,4,5,5,6,6],"right_children":[2,4,6,8,10,12,14,-1,-1,-1,-1,-1,-1,-1,-1],"split_conditions":[5.99E2,5.47E2,6.35E2,4.56E2,1.2024048E-2,5E-1,6.51E2,1.1531785E-2,7.457122E-3,-7.364158E-4,2.10222E-3,-4.506382E-3,-8.8790115E-3,-1.4380507E-2,-1.9455224E-2],"split_indices":[0,0,0,0,10,11,0,0,0,0,0,0,0,0,0],"split_type":[0,0,0,0,0,0,0,0,0,0,0,0,0,0,0],"sum_hessian":[7.235722E2,4.7280844E2,2.5076378E2,3.1994913E2,1.5285931E2,1.2553475E2,1.2522902E2,1.5083437E2,1.6911476E2,4.093742E1,1.1192189E2,5.1547405E1,7.398735E1,5.550905E1,6.971997E1],"tree_param":{"num_deleted":"0","num_feature":"12","num_nodes":"15","size_leaf_vector":"1"}},{"base_weights":[1.403361E-2,7.575734E-1,-1.0988408E0,1.1972247E0,4.7043446E-1,-5.663494E-1,-1.7227478E0,1.2432132E-2,8.163035E-3,6.7742933E-3,1.8907622E-3,-3.873657E-3,-8.780998E-3,-1.37233455E-2,-1.9138813E-2],"categories":[],"categories_nodes":[],"categories_segments":[],"categories_sizes":[],"default_left":[0,0,0,0,0,0,0,0,0,0,0,0,0,0,0],"id":1,"left_children":[1,3,5,7,9,11,13,-1,-1,-1,-1,-1,-1,-1,-1],"loss_changes":[6.0793256E2,5.4753326E1,9.6300385E1,1.5088196E0,1.5467724E1,8.473347E0,5.086487E0,0E0,0E0,0E0,0E0,0E0,0E0,0E0,0E0],"parents":[2147483647,0,0,1,1,2,2,3,3,4,4,5,5,6,6],"right_children":[2,4,6,8,10,12,14,-1,-1,-1,-1,-1,-1,-1,-1],"split_conditions":[5.88E2,4.69E2,6.34E2,1.6E1,5.48E2,6.18E2,6.49E2,1.2432132E-2,8.163035E-3,6.7742933E-3,1.8907622E-3,-3.873657E-3,-8.780998E-3,-1.37233455E-2,-1.9138813E-2],"split_indices":[0,0,0,4,0,0,0,0,0,0,0,0,0,0,0],"split_type":[0,0,0,0,0,0,0,0,0,0,0,0,0,0,0],"sum_hessian":[7.316825E2,4.3891263E2,2.9276987E2,1.7152652E2,2.673861E2,1.5950087E2,1.3326898E2,1.5001921E2,2.1507315E1,1.5283444E2,1.1455167E2,1.0346365E2,5.6037216E1,5.1366524E1,8.1902466E1],"tree_param":{"num_deleted":"0","num_feature":"12","num_nodes":"15","size_leaf_vector":"1"}},{"base_weights":[-7.2959433E-3,5.75906E-1,-1.3820977E0,9.2188674E-1,3.8141657E-2,-8.086442E-1,-1.7097993E0,1.21716745E-2,6.959316E-3,1.6573466E-3,-1.9855946E-3,-5.5726883E-3,-9.282891E-3,-1.40488995E-2,-1.903889E-2],"categories":[],"categories_nodes":[],"categories_segments":[],"categories_sizes":[],"default_left":[0,0,0,0,0,0,0,0,0,0,0,0,0,0,0],"id":2,"left_children":[1,3,5,7,9,11,13,-1,-1,-1,-1,-1,-1,-1,-1],"loss_changes":[5.898793E2,9.6061066E1,3.9105682E1,1.9698242E1,6.204548E0,1.7062569E0,4.160553E0,0E0,0E0,0E0,0E0,0E0,0E0,0E0,0E0],"parents":[2147483647,0,0,1,1,2,2,3,3,4,4,5,5,6,6],"right_children":[2,4,6,8,10,12,14,-1,-1,-1,-1,-1,-1,-1,-1],"split_conditions":[6.12E2,5.47E2,6.34E2,4.46E2,5.91E2,1E0,6.49E2,1.21716745E-2,6.959316E-3,1.6573466E-3,-1.9855946E-3,-5.5726883E-3,-9.282891E-3,-1.40488995E-2,-1.903889E-2],"split_indices":[0,0,0,0,0,9,0,0,0,0,0,0,0,0,0],"split_type":[0,0,0,0,0,0,0,0,0,0,0,0,0,0,0],"sum_hessian":[7.327166E2,5.150851E2,2.1763158E2,3.1278046E2,2.023046E2,8.103237E1,1.365992E2,1.3273744E2,1.8004303E2,1.3174017E2,7.0564415E1,2.8867638E1,5.2164738E1,5.793792E1,7.866128E1],"tree_param":{"num_deleted":"0","num_feature":"12","num_nodes":"15","size_leaf_vector":"1"}},{"base_weights":[1.1629346E-2,7.440641E-1,-1.0781718E0,1.0219737E0,3.457287E-1,-6.024431E-1,-1.7639592E0,1.1534659E-2,8.130888E-3,6.107874E-4,4.714606E-3,-3.6241277E-3,-9.117078E-3,-1.3930312E-2,-1.885382E-2],"categories":[],"categories_nodes":[],"categories_segments":[],"categories_sizes":[],"default_left":[0,0,0,0,0,0,0,0,0,0,0,0,0,0,0],"id":3,"left_children":[1,3,5,7,9,11,13,-1,-1,-1,-1,-1,-1,-1,-1],"loss_changes":[5.892509E2,4.8342606E1,9.521295E1,5.7148743E0,6.531292E0,1.2678734E1,1.4990845E0,0E0,0E0,0E0,0E0,0E0,0E0,0E0,0E0],"parents":[2147483647,0,0,1,1,2,2,3,3,4,4,5,5,6,6],"right_children":[2,4,6,8,10,12,14,-1,-1,-1,-1,-1,-1,-1,-1],"split_conditions":[5.88E2,5.19E2,6.39E2,4.3333335E0,1.2612613E-2,6.18E2,6.49E2,1.1534659E-2,8.130888E-3,6.107874E-4,4.714606E-3,-3.6241277E-3,-9.117078E-3,-1.3930312E-2,-1.885382E-2],"split_indices":[0,0,0,5,10,0,0,0,0,0,0,0,0,0,0],"split_type":[0,0,0,0,0,0,0,0,0,0,0,0,0,0,0],"sum_hessian":[7.352095E2,4.3998187E2,2.952276E2,2.577836E2,1.8219826E2,1.7597322E2,1.19254395E2,1.5403572E2,1.0374788E2,5.6504333E1,1.25693924E2,1.00910835E2,7.5062386E1,3.4024323E1,8.523007E1],"tree_param":{"num_deleted":"0","num_feature":"12","num_nodes":"15","size_leaf_vector":"1"}},{"base_weights":[-3.8277097E-2,6.215211E-1,-1.2793874E0,9.1250896E-1,6.264695E-2,-7.6830626E-1,-1.6868216E0,1.04384925E-2,6.693017E-3,3.1241286E-3,-1.3550309E-3,-8.224542E-3,-3.870001E-4,-1.4020282E-2,-1.8847441E-2],"categories":[],"categories_nodes":[],"categories_segments":[],"categories_sizes":[],"default_left":[0,0,0,0,0,0,0,0,0,0,0,0,0,0,0],"id":4,"left_children":[1,3,5,7,9,11,13,-1,-1,-1,-1,-1,-1,-1,-1],"loss_changes":[6.115674E2,7.92215E1,5.203125E1,9.192352E0,8.406971E0,4.6035233E0,4.095337E0,0E0,0E0,0E0,0E0,0E0,0E0,0E0,0E0],"parents":[2147483647,0,0,1,1,2,2,3,3,4,4,5,5,6,6],"right_children":[2,4,6,8,10,12,14,-1,-1,-1,-1,-1,-1,-1,-1],"split_conditions":[6.02E2,5.47E2,6.34E2,4.9E2,5.73E2,2.096436E-2,6.51E2,1.04384925E-2,6.693017E-3,3.1241286E-3,-1.3550309E-3,-8.224542E-3,-3.870001E-4,-1.4020282E-2,-1.8847441E-2],"split_indices":[0,0,0,0,0,10,0,0,0,0,0,0,0,0,0],"split_type":[0,0,0,0,0,0,0,0,0,0,0,0,0,0,0],"sum_hessian":[7.4387524E2,4.8616785E2,2.577074E2,3.1908264E2,1.670852E2,1.16233696E2,1.4147371E2,2.0398546E2,1.1509719E2,7.3532875E1,9.355233E1,1.0802566E2,8.208039E0,6.297859E1,7.8495125E1],"tree_param":{"num_deleted":"0","num_feature":"12","num_nodes":"15","size_leaf_vector":"1"}},{"base_weights":[1.9773174E-2,8.2711583E-1,-1.4710547E-1,2.5999084E-1,1.2945614E0,-2.684018E-1,4.1684067E-1,9.182527E-3,-9.648851E-4,1.0175543E-2,1.4296797E-2,-3.7551226E-4,-8.303614E-3,1.1065124E-2,-4.8822784E-3],"categories":[],"categories_nodes":[],"categories_segments":[],"categories_sizes":[],"default_left":[0,0,0,0,0,0,0,0,0,0,0,0,0,0,0],"id":5,"left_children":[1,3,5,7,9,11,13,-1,-1,-1,-1,-1,-1,-1,-1],"loss_changes":[9.943374E1,3.300782E1,4.2015156E1,1.3976379E1,3.9743805E-1,6.538646E1,6.877134E1,0E0,0E0,0E0,0E0,0E0,0E0,0E0,0E0],"parents":[2147483647,0,0,1,1,2,2,3,3,4,4,5,5,6,6],"right_children":[2,4,6,8,10,12,14,-1,-1,-1,-1,-1,-1,-1,-1],"split_conditions":[6E0,9.708738E-3,2.0236088E-2,6E0,1.1976048E-2,1E1,1.3E1,9.182527E-3,-9.648851E-4,1.0175543E-2,1.4296797E-2,-3.7551226E-4,-8.303614E-3,1.1065124E-2,-4.8822784E-3],"split_indices":[1,10,10,4,10,2,1,0,0,0,0,0,0,0,0],"split_type":[0,0,0,0,0,0,0,0,0,0,0,0,0,0,0],"sum_hessian":[7.351773E2,1.24915184E2,6.102621E2,5.7494583E1,6.742059E1,5.0288516E2,1.0737694E2,1.9367472E1,3.8127113E1,2.6299677E1,4.112092E1,3.575893E2,1.4529587E2,6.075053E1,4.6626404E1],"tree_param":{"num_deleted":"0","num_feature":"12","num_nodes":"15","size_leaf_vector":"1"}},{"base_weights":[-2.4880538E-2,7.9327554E-1,-9.721137E-1,9.8026973E-1,4.2117345E-1,-4.855E-1,-1.6492047E0,1.1010023E-2,8.10809E-3,5.9611527E-3,2.4470978E-3,-2.5027092E-3,-7.6999515E-3,-1.3307477E-2,-1.8414883E-2],"categories":[],"categories_nodes":[],"categories_segments":[],"categories_sizes":[],"default_left":[0,0,0,0,0,0,0,0,0,0,0,0,0,0,0],"id":6,"left_children":[1,3,5,7,9,11,13,-1,-1,-1,-1,-1,-1,-1,-1],"loss_changes":[5.724821E2,2.6961288E1,1.1158969E2,4.035202E0,3.9550133E0,1.31826515E1,5.0513306E0,0E0,0E0,0E0,0E0,0E0,0E0,0E0,0E0],"parents":[2147483647,0,0,1,1,2,2,3,3,4,4,5,5,6,6],"right_children":[2,4,6,8,10,12,14,-1,-1,-1,-1,-1,-1,-1,-1],"split_conditions":[5.76E2,5.21E2,6.34E2,4.53E2,5.51E2,6.1E2,6.49E2,1.1010023E-2,8.10809E-3,5.9611527E-3,2.4470978E-3,-2.5027092E-3,-7.6999515E-3,-1.3307477E-2,-1.8414883E-2],"split_indices":[0,0,0,0,0,0,0,0,0,0,0,0,0,0,0],"split_type":[0,0,0,0,0,0,0,0,0,0,0,0,0,0,0],"sum_hessian":[7.357087E2,3.9488095E2,3.408277E2,2.6117822E2,1.3370273E2,1.9980608E2,1.4102164E2,1.4770204E2,1.1347618E2,6.534956E1,6.835317E1,1.10916534E2,8.888954E1,5.7564827E1,8.345681E1],"tree_param":{"num_deleted":"0","num_feature":"12","num_nodes":"15","size_leaf_vector":"1"}},{"base_weights":[1.5988372E-2,7.612821E-1,-1.0448436E0,1.0234203E0,3.6497056E-1,-5.326736E-1,-1.6611776E0,1.2332797E-2,9.09602E-3,5.5790413E-3,1.8386479E-3,-3.1941014E-3,-8.303309E-3,-1.3987973E-2,-1.851364E-2],"categories":[],"categories_nodes":[],"categories_segments":[],"categories_sizes":[],"default_left":[0,0,0,0,0,0,0,0,0,0,0,0,0,0,0],"id":7,"left_children":[1,3,5,7,9,11,13,-1,-1,-1,-1,-1,-1,-1,-1],"loss_changes":[5.864489E2,4.4698563E1,9.529544E1,4.5605774E0,5.987755E0,1.035429E1,3.0123596E0,0E0,0E0,0E0,0E0,0E0,0E0,0E0,0E0],"parents":[2147483647,0,0,1,1,2,2,3,3,4,4,5,5,6,6],"right_children":[2,4,6,8,10,12,14,-1,-1,-1,-1,-1,-1,-1,-1],"split_conditions":[5.88E2,5.18E2,6.34E2,6E0,5.55E2,6.16E2,6.51E2,1.2332797E-2,9.09602E-3,5.5790413E-3,1.8386479E-3,-3.1941014E-3,-8.303309E-3,-1.3987973E-2,-1.851364E-2],"split_indices":[0,0,0,2,0,0,0,0,0,0,0,0,0,0,0],"split_type":[0,0,0,0,0,0,0,0,0,0,0,0,0,0,0],"sum_hessian":[7.387385E2,4.341485E2,3.0459003E2,2.5987918E2,1.7426932E2,1.6787953E2,1.367105E2,8.61963E1,1.7368289E2,8.286824E1,9.140108E1,9.961655E1,6.826298E1,6.2717735E1,7.399276E1],"tree_param":{"num_deleted":"0","num_feature":"12","num_nodes":"15","size_leaf_vector":"1"}},{"base_weights":[-2.0287526E-3,6.4434433E-1,-1.1679679E0,8.742344E-1,1.3330135E-1,-6.594022E-1,-1.6249328E0,1.07873855E-2,6.985114E-3,2.315571E-3,-1.268709E-3,-3.4985994E-3,-7.994624E-3,-1.3069681E-2,-1.8175201E-2],"categories":[],"categories_nodes":[],"categories_segments":[],"categories_sizes":[],"default_left":[0,0,0,0,0,0,0,0,0,0,0,0,0,0,0],"id":8,"left_children":[1,3,5,7,9,11,13,-1,-1,-1,-1,-1,-1,-1,-1],"loss_changes":[5.527033E2,5.5256638E1,5.917987E1,1.05546875E1,3.8316128E0,5.0569077E0,4.8107605E0,0E0,0E0,0E0,0E0,0E0,0E0,0E0,0E0],"parents":[2147483647,0,0,1,1,2,2,3,3,4,4,5,5,6,6],"right_children":[2,4,6,8,10,12,14,-1,-1,-1,-1,-1,-1,-1,-1],"split_conditions":[5.98E2,5.51E2,6.34E2,4.53E2,5.87E2,6.11E2,6.49E2,1.07873855E-2,6.985114E-3,2.315571E-3,-1.268709E-3,-3.4985994E-3,-7.994624E-3,-1.3069681E-2,-1.8175201E-2],"split_indices":[0,0,0,0,0,0,0,0,0,0,0,0,0,0,0],"split_type":[0,0,0,0,0,0,0,0,0,0,0,0,0,0,0],"sum_hessian":[7.303886E2,4.7032242E2,2.600662E2,3.2365973E2,1.4666269E2,1.24818054E2,1.3524814E2,1.4601779E2,1.7764194E2,1.0657784E2,4.008485E1,4.0517838E1,8.430022E1,5.5423176E1,7.982495E1],"tree_param":{"num_deleted":"0","num_feature":"12","num_nodes":"15","size_leaf_vector":"1"}},{"base_weights":[1.6359609E-2,6.3339794E-1,-1.1151694E0,8.966478E-1,9.234243E-2,-7.2076654E-1,-1.6778287E0,1.0643798E-2,6.933781E-3,2.6676047E-3,-6.398596E-4,-3.3773424E-3,-8.543982E-3,-1.3294902E-2,-1.8121352E-2],"categories":[],"categories_nodes":[],"categories_segments":[],"categories_sizes":[],"default_left":[0,0,0,0,0,0,0,0,0,0,0,0,0,0,0],"id":9,"left_children":[1,3,5,7,9,11,13,-1,-1,-1,-1,-1,-1,-1,-1],"loss_changes":[5.131064E2,6.760867E1,5.573767E1,9.793976E0,4.3151093E0,7.5058517E0,1.333313E0,0E0,0E0,0E0,0E0,0E0,0E0,0E0,0E0],"parents":[2147483647,0,0,1,1,2,2,3,3,4,4,5,5,6,6],"right_children":[2,4,6,8,10,12,14,-1,-1,-1,-1,-1,-1,-1,-1],"split_conditions":[5.98E2,5.47E2,6.41E2,4.69E2,5.73E2,6.11E2,6.51E2,1.0643798E-2,6.933781E-3,2.6676047E-3,-6.398596E-4,-3.3773424E-3,-8.543982E-3,-1.3294902E-2,-1.8121352E-2],"split_indices":[0,0,0,0,0,0,0,0,0,0,0,0,0,0,0],"split_type":[0,0,0,0,0,0,0,0,0,0,0,0,0,0,0],"sum_hessian":[7.318847E2,4.7404294E2,2.578418E2,3.182251E2,1.5581783E2,1.5359737E2,1.0424443E2,1.7087213E2,1.4735297E2,7.314697E1,8.267085E1,4.1095417E1,1.1250195E2,3.3557625E1,7.0686806E1],"tree_param":{"num_deleted":"0","num_feature":"12","num_nodes":"15","size_leaf_vector":"1"}},{"base_weights":[-1.9055266E-2,6.477426E-1,-1.050055E0,8.435437E-1,1.7531788E-1,-5.699751E-1,-1.5914454E0,1.0782084E-2,6.6109546E-3,2.306849E-3,-1.3468664E-3,-4.121937E-3,-8.129556E-3,-1.3324965E-2,-1.7962312E-2],"categories":[],"categories_nodes":[],"categories_segments":[],"categories_sizes":[],"default_left":[0,0,0,0,0,0,0,0,0,0,0,0,0,0,0],"id":10,"left_children":[1,3,5,7,9,11,13,-1,-1,-1,-1,-1,-1,-1,-1],"loss_changes":[5.043823E2,4.099298E1,7.352933E1,1.2400543E1,2.3199759E0,5.441742E0,3.546692E0,0E0,0E0,0E0,0E0,0E0,0E0,0E0,0E0],"parents":[2147483647,0,0,1,1,2,2,3,3,4,4,5,5,6,6],"right_children":[2,4,6,8,10,12,14,-1,-1,-1,-1,-1,-1,-1,-1],"split_conditions":[5.91E2,5.47E2,6.34E2,4.46E2,5.86E2,6.18E2,6.51E2,1.0782084E-2,6.6109546E-3,2.306849E-3,-1.3468664E-3,-4.121937E-3,-8.129556E-3,-1.3324965E-2,-1.7962312E-2],"split_indices":[0,0,0,0,0,0,0,0,0,0,0,0,0,0,0],"split_type":[0,0,0,0,0,0,0,0,0,0,0,0,0,0,0],"sum_hessian":[7.3069653E2,4.4405933E2,2.8663724E2,3.1310962E2,1.309497E2,1.5355287E2,1.3308437E2,1.3373512E2,1.7937448E2,1.11431725E2,1.9517982E1,9.55508E1,5.8002083E1,6.3742725E1,6.9341644E1],"tree_param":{"num_deleted":"0","num_feature":"12","num_nodes":"15","size_leaf_vector":"1"}},{"base_weights":[1.0580497E-2,2.9337817E-1,-3.51474E-1,-7.885102E-2,8.3917767E-1,-5.278114E-1,4.1327447E-1,5.5980664E-3,-4.605821E-3,7.498582E-3,1.2315039E-2,-3.6793223E-3,-1.1774191E-2,9.8087825E-3,-4.3322486E-3],"categories":[],"categories_nodes":[],"categories_segments":[],"categories_sizes":[],"default_left":[0,0,0,0,0,0,0,0,0,0,0,0,0,0,0],"id":11,"left_children":[1,3,5,7,9,11,13,-1,-1,-1,-1,-1,-1,-1,-1],"loss_changes":[7.5517975E1,8.4224396E1,4.394924E1,6.073949E1,4.5027695E0,2.6719398E1,3.0164227E1,0E0,0E0,0E0,0E0,0E0,0E0,0E0,0E0],"parents":[2147483647,0,0,1,1,2,2,3,3,4,4,5,5,6,6],"right_children":[2,4,6,8,10,12,14,-1,-1,-1,-1,-1,-1,-1,-1],"split_conditions":[9E0,1.3274336E-2,2.1798365E-2,6E0,2.0092735E-2,1.2E1,1.4E1,5.5980664E-3,-4.605821E-3,7.498582E-3,1.2315039E-2,-3.6793223E-3,-1.1774191E-2,9.8087825E-3,-4.3322486E-3],"split_indices":[1,10,10,1,10,2,1,0,0,0,0,0,0,0,0],"split_type":[0,0,0,0,0,0,0,0,0,0,0,0,0,0,0],"sum_hessian":[7.345548E2,4.125781E2,3.219767E2,2.4605476E2,1.6652333E2,2.620235E2,5.9953224E1,9.1788185E1,1.5426657E2,1.391993E2,2.7324026E1,2.121576E2,4.9865887E1,3.574619E1,2.4207037E1],"tree_param":{"num_deleted":"0","num_feature":"12","num_nodes":"15","size_leaf_vector":"1"}},{"base_weights":[-3.6503065E-2,5.7524717E-1,-1.1568248E0,8.774758E-1,1.9750935E-1,-7.5988686E-1,-1.6486255E-2,1.0643946E-2,7.0950077E-3,4.280569E-3,5.4060295E-4,-3.9380775E-3,-9.179745E-3],"categories":[],"categories_nodes":[],"categories_segments":[],"categories_sizes":[],"default_left":[0,0,0,0,0,0,0,0,0,0,0,0,0],"id":12,"left_children":[1,3,5,7,9,11,-1,-1,-1,-1,-1,-1,-1],"loss_changes":[5.124919E2,5.4963898E1,4.9674957E1,7.2907867E0,7.1399174E0,8.076218E0,0E0,0E0,0E0,0E0,0E0,0E0,0E0],"parents":[2147483647,0,0,1,1,2,2,3,3,4,4,5,5],"right_children":[2,4,6,8,10,12,-1,-1,-1,-1,-1,-1,-1],"split_conditions":[5.98E2,5.19E2,6.39E2,3.6666667E0,5.55E2,6.12E2,-1.6486255E-2,1.0643946E-2,7.0950077E-3,4.280569E-3,5.4060295E-4,-3.9380775E-3,-9.179745E-3],"split_indices":[0,0,0,5,0,0,0,0,0,0,0,0,0],"split_type":[0,0,0,0,0,0,0,0,0,0,0,0,0],"sum_hessian":[7.44817E2,4.8222726E2,2.6258975E2,2.667865E2,2.1544077E2,1.4742168E2,1.15168076E2,1.2248406E2,1.4430244E2,8.149235E1,1.3394841E2,4.6041428E1,1.0138026E2],"tree_param":{"num_deleted":"0","num_feature":"12","num_nodes":"13","size_leaf_vector":"1"}},{"base_weights":[-1.7194208E-2,6.2942517E-1,-1.1201385E0,8.60902E-1,1.5250565E-1,-6.694906E-1,-1.577963E0,1.0572879E-2,6.748554E-3,2.9347162E-3,2.501403E-4,-4.0474306E-3,-9.316272E-3,-1.2798467E-2,-1.7685859E-2],"categories":[],"categories_nodes":[],"categories_segments":[],"categories_sizes":[],"default_left":[0,0,0,0,0,0,0,0,0,0,0,0,0,0,0],"id":13,"left_children":[1,3,5,7,9,11,13,-1,-1,-1,-1,-1,-1,-1,-1],"loss_changes":[5.283569E2,5.1364517E1,5.4904785E1,1.04066925E1,2.7645857E0,9.191071E0,4.260132E0,0E0,0E0,0E0,0E0,0E0,0E0,0E0,0E0],"parents":[2147483647,0,0,1,1,2,2,3,3,4,4,5,5,6,6],"right_children":[2,4,6,8,10,12,14,-1,-1,-1,-1,-1,-1,-1,-1],"split_conditions":[5.98E2,5.47E2,6.35E2,4.56E2,9E0,6.18E2,6.51E2,1.0572879E-2,6.748554E-3,2.9347162E-3,2.501403E-4,-4.0474306E-3,-9.316272E-3,-1.2798467E-2,-1.7685859E-2],"split_indices":[0,0,0,0,2,0,0,0,0,0,0,0,0,0,0],"split_type":[0,0,0,0,0,0,0,0,0,0,0,0,0,0,0],"sum_hessian":[7.3785815E2,4.6555994E2,2.7229825E2,3.126197E2,1.5294025E2,1.3908598E2,1.3321227E2,1.4866669E2,1.6395302E2,7.1704544E1,8.12357E1,7.109694E1,6.798904E1,5.646979E1,7.674247E1],"tree_param":{"num_deleted":"0","num_feature":"12","num_nodes":"15","size_leaf_vector":"1"}},{"base_weights":[7.6932474E-3,6.578587E-1,-1.0782989E0,8.786964E-1,1.4006476E-1,-6.5862375E-1,-1.6426802E-2,9.96988E-3,6.8357927E-3,2.8179449E-3,-5.4357897E-5,-4.0776026E-3,-8.986064E-3],"categories":[],"categories_nodes":[],"categories_segments":[],"categories_sizes":[],"default_left":[0,0,0,0,0,0,0,0,0,0,0,0,0],"id":14,"left_children":[1,3,5,7,9,11,-1,-1,-1,-1,-1,-1,-1],"loss_changes":[5.189028E2,5.2379883E1,6.356436E1,6.408905E0,2.8733144E0,9.103806E0,0E0,0E0,0E0,0E0,0E0,0E0,0E0],"parents":[2147483647,0,0,1,1,2,2,3,3,4,4,5,5],"right_children":[2,4,6,8,10,12,-1,-1,-1,-1,-1,-1,-1],"split_conditions":[5.93E2,5.47E2,6.39E2,4.86E2,1.52207E-2,6.18E2,-1.6426802E-2,9.96988E-3,6.8357927E-3,2.8179449E-3,-5.4357897E-5,-4.0776026E-3,-8.986064E-3],"split_indices":[0,0,0,0,10,0,0,0,0,0,0,0,0],"split_type":[0,0,0,0,0,0,0,0,0,0,0,0,0],"sum_hessian":[7.319051E2,4.581873E2,2.7371777E2,3.2046457E2,1.3772273E2,1.588483E2,1.1486947E2,1.9567197E2,1.2479261E2,6.905363E1,6.8669106E1,7.9643005E1,7.92053E1],"tree_param":{"num_deleted":"0","num_feature":"12","num_nodes":"13","size_leaf_vector":"1"}},{"base_weights":[-1.4256973E-2,5.5633193E-1,-1.1429336E0,8.3924943E-1,3.414194E-2,-8.1096774E-1,-1.7079534E-2,1.0751575E-2,6.5263305E-3,1.7304956E-3,-8.582859E-4,-4.7410876E-3,-9.569175E-3],"categories":[],"categories_nodes":[],"categories_segments":[],"categories_sizes":[],"default_left":[0,0,0,0,0,0,0,0,0,0,0,0,0],"id":15,"left_children":[1,3,5,7,9,11,-1,-1,-1,-1,-1,-1,-1],"loss_changes":[4.7501584E2,7.233963E1,4.4376434E1,1.2934525E1,2.9174812E0,7.1299057E0,0E0,0E0,0E0,0E0,0E0,0E0,0E0],"parents":[2147483647,0,0,1,1,2,2,3,3,4,4,5,5],"right_children":[2,4,6,8,10,12,-1,-1,-1,-1,-1,-1,-1],"split_conditions":[6.05E2,5.47E2,6.46E2,4.48E2,5.76E2,6.18E2,-1.7079534E-2,1.0751575E-2,6.5263305E-3,1.7304956E-3,-8.582859E-4,-4.7410876E-3,-9.569175E-3],"split_indices":[0,0,0,0,0,0,0,0,0,0,0,0,0],"split_type":[0,0,0,0,0,0,0,0,0,0,0,0,0],"sum_hessian":[7.3460944E2,4.8844336E2,2.4616603E2,3.16212E2,1.7223137E2,1.5736334E2,8.880269E1,1.3650694E2,1.7970505E2,7.950872E1,9.272266E1,4.9496277E1,1.07867065E2],"tree_param":{"num_deleted":"0","num_feature":"12","num_nodes":"13","size_leaf_vector":"1"}},{"base_weights":[1.6417908E-2,5.503167E-1,-1.2543013E0,8.51962E-1,6.486496E-2,-8.362709E-1,-1.6276639E-2,1.05283E-2,6.7433915E-3,2.4094607E-3,-1.9325933E-3,-7.4336487E-3,-1.065894E-2],"categories":[],"categories_nodes":[],"categories_segments":[],"categories_sizes":[],"default_left":[0,0,0,0,0,0,0,0,0,0,0,0,0],"id":16,"left_children":[1,3,5,7,9,11,-1,-1,-1,-1,-1,-1,-1],"loss_changes":[4.895829E2,7.432126E1,3.1281067E1,1.0111649E1,8.994075E0,1.0261154E0,0E0,0E0,0E0,0E0,0E0,0E0,0E0],"parents":[2147483647,0,0,1,1,2,2,3,3,4,4,5,5],"right_children":[2,4,6,8,10,12,-1,-1,-1,-1,-1,-1,-1],"split_conditions":[6.12E2,5.47E2,6.41E2,4.53E2,5.87E2,6.34E2,-1.6276639E-2,1.05283E-2,6.7433915E-3,2.4094607E-3,-1.9325933E-3,-7.4336487E-3,-1.065894E-2],"split_indices":[0,0,0,0,0,0,0,0,0,0,0,0,0],"split_type":[0,0,0,0,0,0,0,0,0,0,0,0,0],"sum_hessian":[7.18609E2,5.0660632E2,2.120027E2,3.117572E2,1.9484912E2,1.0231115E2,1.0969155E2,1.4283669E2,1.6892053E2,1.1589228E2,7.895683E1,7.736506E1,2.4946093E1],"tree_param":{"num_deleted":"0","num_feature":"12","num_nodes":"13","size_leaf_vector":"1"}},{"base_weights":[-4.311617E-3,6.460252E-1,-1.052538E0,8.532848E-1,1.23942114E-1,-6.032104E-1,-1.5156895E0,9.938759E-3,7.203708E-3,2.750959E-3,-8.067608E-5,-3.3793102E-3,-7.7353353E-3,-1.24160135E-2,-1.7151367E-2],"categories":[],"categories_nodes":[],"categories_segments":[],"categories_sizes":[],"default_left":[0,0,0,0,0,0,0,0,0,0,0,0,0,0,0],"id":17,"left_children":[1,3,5,7,9,11,13,-1,-1,-1,-1,-1,-1,-1,-1],"loss_changes":[4.96143E2,4.8442596E1,5.66185E1,4.9292755E0,2.5851817E0,6.111107E0,4.252655E0,0E0,0E0,0E0,0E0,0E0,0E0,0E0,0E0],"parents":[2147483647,0,0,1,1,2,2,3,3,4,4,5,5,6,6],"right_children":[2,4,6,8,10,12,14,-1,-1,-1,-1,-1,-1,-1,-1],"split_conditions":[5.94E2,5.51E2,6.34E2,4.56E2,1.4344262E-2,6.11E2,6.51E2,9.938759E-3,7.203708E-3,2.750959E-3,-8.067608E-5,-3.3793102E-3,-7.7353353E-3,-1.24160135E-2,-1.7151367E-2],"split_indices":[0,0,0,0,10,0,0,0,0,0,0,0,0,0,0],"split_type":[0,0,0,0,0,0,0,0,0,0,0,0,0,0,0],"sum_hessian":[7.2480615E2,4.4765143E2,2.7715472E2,3.1975974E2,1.27891685E2,1.4242975E2,1.3472498E2,1.5067029E2,1.6908946E2,5.8864628E1,6.9027054E1,5.7441044E1,8.498871E1,6.1309235E1,7.341573E1],"tree_param":{"num_deleted":"0","num_feature":"12","num_nodes":"15","size_leaf_vector":"1"}},{"base_weights":[1.6998643E-2,5.991421E-1,-1.0567813E0,9.9444836E-1,3.3094764E-1,-6.6176116E-1,-1.6051263E-2,1.0814784E-2,6.652617E-3,4.915244E-3,-7.641601E-4,-3.5394148E-3,-7.7352417E-3],"categories":[],"categories_nodes":[],"categories_segments":[],"categories_sizes":[],"default_left":[0,0,0,0,0,0,0,0,0,0,0,0,0],"id":18,"left_children":[1,3,5,7,9,11,-1,-1,-1,-1,-1,-1,-1],"loss_changes":[4.5810938E2,4.9886185E1,5.421527E1,4.402298E0,1.8722971E1,4.829376E0,0E0,0E0,0E0,0E0,0E0,0E0,0E0],"parents":[2147483647,0,0,1,1,2,2,3,3,4,4,5,5],"right_children":[2,4,6,8,10,12,-1,-1,-1,-1,-1,-1,-1],"split_conditions":[6E2,4.84E2,6.41E2,5.555556E-1,5.76E2,6.12E2,-1.6051263E-2,1.0814784E-2,6.652617E-3,4.915244E-3,-7.641601E-4,-3.5394148E-3,-7.7352417E-3],"split_indices":[0,0,0,8,0,0,0,0,0,0,0,0,0],"split_type":[0,0,0,0,0,0,0,0,0,0,0,0,0],"sum_hessian":[7.298455E2,4.7369672E2,2.5614883E2,1.8983167E2,2.8386505E2,1.5081445E2,1.0533438E2,1.4742703E2,4.2404617E1,2.0338411E2,8.048094E1,4.1836884E1,1.0897757E2],"tree_param":{"num_deleted":"0","num_feature":"12","num_nodes":"13","size_leaf_vector":"1"}},{"base_weights":[3.5276834E-2,7.07204E-1,-9.961375E-1,1.0873389E0,5.2680635E-1,-4.8482066E-1,-1.4533951E0,9.974936E-3,1.3526456E-2,6.465479E-3,1.6131995E-3,-2.9112499E-3,-6.8748617E-3,-1.1430631E-2,-1.6489867E-2],"categories":[],"categories_nodes":[],"categories_segments":[],"categories_sizes":[],"default_left":[0,0,0,0,0,0,0,0,0,0,0,0,0,0,0],"id":19,"left_children":[1,3,5,7,9,11,13,-1,-1,-1,-1,-1,-1,-1,-1],"loss_changes":[5.024934E2,2.9245117E1,6.5820404E1,1.3102264E0,1.2999977E1,5.089119E0,6.292694E0,0E0,0E0,0E0,0E0,0E0,0E0,0E0,0E0],"parents":[2147483647,0,0,1,1,2,2,3,3,4,4,5,5,6,6],"right_children":[2,4,6,8,10,12,14,-1,-1,-1,-1,-1,-1,-1,-1],"split_conditions":[5.91E2,4.49E2,6.3E2,8E0,5.67E2,6.12E2,6.46E2,9.974936E-3,1.3526456E-2,6.465479E-3,1.6131995E-3,-2.9112499E-3,-6.8748617E-3,-1.1430631E-2,-1.6489867E-2],"split_indices":[0,0,0,1,0,0,0,0,0,0,0,0,0,0,0],"split_type":[0,0,0,0,0,0,0,0,0,0,0,0,0,0,0],"sum_hessian":[7.220371E2,4.3749637E2,2.845407E2,1.3837355E2,2.9912283E2,1.3578877E2,1.4875194E2,1.087017E2,2.9671846E1,2.244383E2,7.468453E1,7.129958E1,6.448918E1,6.1476883E1,8.7275055E1],"tree_param":{"num_deleted":"0","num_feature":"12","num_nodes":"15","size_leaf_vector":"1"}},{"base_weights":[-1.3868624E-2,4.9091512E-1,-1.2086279E0,8.983898E-1,1.1895271E-1,-7.655071E-1,-1.5451106E0,1.0624615E-2,7.3948517E-3,2.8415327E-3,-1.5497342E-3,-1.0988467E-2,-6.8119387E-3,-1.2480278E-2,-1.6810391E-2],"categories":[],"categories_nodes":[],"categories_segments":[],"categories_sizes":[],"default_left":[0,0,0,0,0,0,0,0,0,0,0,0,0,0,0],"id":20,"left_children":[1,3,5,7,9,11,13,-1,-1,-1,-1,-1,-1,-1,-1],"loss_changes":[4.3780655E2,7.719129E1,3.0373108E1,5.1652985E0,1.221782E1,1.5761185E0,1.7423096E0,0E0,0E0,0E0,0E0,0E0,0E0,0E0,0E0],"parents":[2147483647,0,0,1,1,2,2,3,3,4,4,5,5,6,6],"right_children":[2,4,6,8,10,12,14,-1,-1,-1,-1,-1,-1,-1,-1],"split_conditions":[6.12E2,5.13E2,6.39E2,5E0,5.82E2,7E0,6.51E2,1.0624615E-2,7.3948517E-3,2.8415327E-3,-1.5497342E-3,-1.0988467E-2,-6.8119387E-3,-1.2480278E-2,-1.6810391E-2],"split_indices":[0,0,0,3,0,1,0,0,0,0,0,0,0,0,0],"split_type":[0,0,0,0,0,0,0,0,0,0,0,0,0,0,0],"sum_hessian":[7.229571E2,5.0885178E2,2.1410533E2,2.4182082E2,2.6703098E2,9.452973E1,1.195756E2,1.14779655E2,1.2704115E2,1.6653831E2,1.0049267E2,1.543939E1,7.909034E1,4.2330704E1,7.7244896E1],"tree_param":{"num_deleted":"0","num_feature":"12","num_nodes":"15","size_leaf_vector":"1"}},{"base_weights":[4.7175307E-3,2.637177E-1,-3.199737E-1,7.944265E-1,1.7433374E-1,-2.5355035E-1,-6.268855E-1,9.163885E-3,4.63727E-3,3.3273252E-3,1.3804777E-3,-2.291731E-3,-7.114E-3,-5.3329943E-3,-9.7689945E-3],"categories":[],"categories_nodes":[],"categories_segments":[],"categories_sizes":[],"default_left":[0,0,0,0,0,0,0,0,0,0,0,0,0,0,0],"id":21,"left_children":[1,3,5,7,9,11,13,-1,-1,-1,-1,-1,-1,-1,-1],"loss_changes":[6.212271E1,1.9284744E1,6.4441566E0,1.734539E0,1.9634962E0,2.7912426E0,1.0955753E0,0E0,0E0,0E0,0E0,0E0,0E0,0E0,0E0],"parents":[2147483647,0,0,1,1,2,2,3,3,4,4,5,5,6,6],"right_children":[2,4,6,8,10,12,14,-1,-1,-1,-1,-1,-1,-1,-1],"split_conditions":[9E0,5E0,1.3E1,1E0,6E0,3.5E0,4E0,9.163885E-3,4.63727E-3,3.3273252E-3,1.3804777E-3,-2.291731E-3,-7.114E-3,-5.3329943E-3,-9.7689945E-3],"split_indices":[2,2,1,9,2,7,6,0,0,0,0,0,0,0,0],"split_type":[0,0,0,0,0,0,0,0,0,0,0,0,0,0,0],"sum_hessian":[7.357147E2,4.0941428E2,3.2630048E2,5.730999E1,3.5210428E2,2.704973E2,5.5803154E1,3.992796E1,1.738203E1,6.3342262E1,2.8876202E2,2.5896033E2,1.1536987E1,4.7017254E1,8.785901E0],"tree_param":{"num_deleted":"0","num_feature":"12","num_nodes":"15","size_leaf_vector":"1"}},{"base_weights":[-4.6490125E-2,4.7827396E-1,-1.2317276E0,8.48563E-1,-1.4076181E-2,-7.422905E-1,-1.5049646E0,9.912222E-3,6.627258E-3,1.8326058E-3,-1.7167791E-3,-4.980342E-3,-8.690606E-3,-1.2528284E-2,-1.6531555E-2],"categories":[],"categories_nodes":[],"categories_segments":[],"categories_sizes":[],"default_left":[0,0,0,0,0,0,0,0,0,0,0,0,0,0,0],"id":22,"left_children":[1,3,5,7,9,11,13,-1,-1,-1,-1,-1,-1,-1,-1],"loss_changes":[4.5587198E2,9.265375E1,2.84021E1,6.7037964E0,6.876442E0,1.9374275E0,2.2316895E0,0E0,0E0,0E0,0E0,0E0,0E0,0E0,0E0],"parents":[2147483647,0,0,1,1,2,2,3,3,4,4,5,5,6,6],"right_children":[2,4,6,8,10,12,14,-1,-1,-1,-1,-1,-1,-1,-1],"split_conditions":[6.12E2,5.4E2,6.34E2,4.69E2,5.75E2,3.3333334E-1,6.49E2,9.912222E-3,6.627258E-3,1.8326058E-3,-1.7167791E-3,-4.980342E-3,-8.690606E-3,-1.2528284E-2,-1.6531555E-2],"split_indices":[0,0,0,0,0,11,0,0,0,0,0,0,0,0,0],"split_type":[0,0,0,0,0,0,0,0,0,0,0,0,0,0,0],"sum_hessian":[7.300277E2,5.0661746E2,2.2341025E2,2.8853183E2,2.1808563E2,8.203666E1,1.413736E2,1.5955083E2,1.2898099E2,9.6727135E1,1.213585E2,3.055579E1,5.148087E1,5.758244E1,8.379115E1],"tree_param":{"num_deleted":"0","num_feature":"12","num_nodes":"15","size_leaf_vector":"1"}},{"base_weights":[-3.2964088E-2,4.6537104E-1,-2.2250202E-1,-2.0087443E-2,8.890495E-1,-8.645296E-1,-1.1973231E-1,5.99808E-3,-4.0178485E-3,1.0923081E-2,6.644454E-3,-6.6382014E-3,-1.36321485E-2,5.0563696E-3,-3.6945008E-3],"categories":[],"categories_nodes":[],"categories_segments":[],"categories_sizes":[],"default_left":[0,0,0,0,0,0,0,0,0,0,0,0,0,0,0],"id":23,"left_children":[1,3,5,7,9,11,13,-1,-1,-1,-1,-1,-1,-1,-1],"loss_changes":[7.079818E1,4.251303E1,3.566223E1,2.3485987E1,3.9484177E0,6.11565E0,7.3628685E1,0E0,0E0,0E0,0E0,0E0,0E0,0E0,0E0],"parents":[2147483647,0,0,1,1,2,2,3,3,4,4,5,5,6,6],"right_children":[2,4,6,8,10,12,14,-1,-1,-1,-1,-1,-1,-1,-1],"split_conditions":[7E0,1.0526316E-2,1.2612613E-2,5E0,6E0,8E0,9E0,5.99808E-3,-4.0178485E-3,1.0923081E-2,6.644454E-3,-6.6382014E-3,-1.36321485E-2,5.0563696E-3,-3.6945008E-3],"split_indices":[1,10,10,1,2,1,2,0,0,0,0,0,0,0,0],"split_type":[0,0,0,0,0,0,0,0,0,0,0,0,0,0,0],"sum_hessian":[7.464123E2,2.0506645E2,5.413458E2,9.6231514E1,1.0883494E2,7.3162605E1,4.6818323E2,3.6346256E1,5.9885254E1,5.409028E1,5.4744663E1,5.4659935E1,1.8502668E1,1.3316365E2,3.3501956E2],"tree_param":{"num_deleted":"0","num_feature":"12","num_nodes":"15","size_leaf_vector":"1"}},{"base_weights":[-1.06496615E-2,4.5850334E-1,-1.8947504E-1,-5.9560955E-2,9.1362417E-1,-8.447248E-1,-8.795103E-2,6.363589E-3,-4.782704E-3,1.0038299E-2,6.2405285E-3,-6.531484E-3,-1.312788E-2,4.4209785E-3,-3.1308283E-3],"categories":[],"categories_nodes":[],"categories_segments":[],"categories_sizes":[],"default_left":[0,0,0,0,0,0,0,0,0,0,0,0,0,0,0],"id":24,"left_children":[1,3,5,7,9,11,13,-1,-1,-1,-1,-1,-1,-1,-1],"loss_changes":[6.136448E1,4.7677994E1,3.511357E1,2.8375347E1,1.8697205E0,5.0679817E0,5.5117718E1,0E0,0E0,0E0,0E0,0E0,0E0,0E0,0E0],"parents":[2147483647,0,0,1,1,2,2,3,3,4,4,5,5,6,6],"right_children":[2,4,6,8,10,12,14,-1,-1,-1,-1,-1,-1,-1,-1],"split_conditions":[7E0,1.0463378E-2,1.2612613E-2,5E0,4.3333335E0,8E0,9E0,6.363589E-3,-4.782704E-3,1.0038299E-2,6.2405285E-3,-6.531484E-3,-1.312788E-2,4.4209785E-3,-3.1308283E-3],"split_indices":[1,10,10,1,5,1,2,0,0,0,0,0,0,0,0],"split_type":[0,0,0,0,0,0,0,0,0,0,0,0,0,0,0],"sum_hessian":[7.2837775E2,2.0036612E2,5.280116E2,9.431313E1,1.06052986E2,6.936163E1,4.5865E2,3.5135742E1,5.9177395E1,7.80419E1,2.801109E1,5.176683E1,1.7594805E1,1.3630016E2,3.2234982E2],"tree_param":{"num_deleted":"0","num_feature":"12","num_nodes":"15","size_leaf_vector":"1"}},{"base_weights":[-2.2157107E-2,6.7095715E-1,-1.5735145E-1,2.0284058E-1,9.8595244E-1,-2.739873E-1,2.707664E-1,6.952783E-3,-4.5441627E-3,8.381397E-3,1.3171794E-2,-8.040431E-5,-5.917819E-3,7.7836527E-3,-5.707908E-3],"categories":[],"categories_nodes":[],"categories_segments":[],"categories_sizes":[],"default_left":[0,0,0,0,0,0,0,0,0,0,0,0,0,0,0],"id":25,"left_children":[1,3,5,7,9,11,13,-1,-1,-1,-1,-1,-1,-1,-1],"loss_changes":[6.857391E1,1.7313816E1,3.0678959E1,1.6636284E1,1.8209305E0,4.0716267E1,5.6977757E1,0E0,0E0,0E0,0E0,0E0,0E0,0E0,0E0],"parents":[2147483647,0,0,1,1,2,2,3,3,4,4,5,5,6,6],"right_children":[2,4,6,8,10,12,14,-1,-1,-1,-1,-1,-1,-1,-1],"split_conditions":[6E0,9.3240095E-3,1.9693654E-2,5E0,1.6605167E-2,9E0,1.3E1,6.952783E-3,-4.5441627E-3,8.381397E-3,1.3171794E-2,-8.040431E-5,-5.917819E-3,7.7836527E-3,-5.707908E-3],"split_indices":[2,10,10,1,10,2,2,0,0,0,0,0,0,0,0],"split_type":[0,0,0,0,0,0,0,0,0,0,0,0,0,0,0],"sum_hessian":[7.2861536E2,1.1795245E2,6.106629E2,4.8436535E1,6.951592E1,4.803398E2,1.3032309E2,2.7640568E1,2.0795967E1,5.172766E1,1.7788261E1,2.62339E2,2.1800081E2,8.136133E1,4.896177E1],"tree_param":{"num_deleted":"0","num_feature":"12","num_nodes":"15","size_leaf_vector":"1"}},{"base_weights":[-5.976001E-3,5.360705E-1,-1.029162E0,7.9139584E-1,5.1840026E-2,-6.108003E-1,-1.5136567E0,7.0392406E-3,1.0749533E-2,2.6745882E-3,-1.1280817E-3,-3.9008472E-3,-7.820442E-3,-1.2274662E-2,-1.645167E-2],"categories":[],"categories_nodes":[],"categories_segments":[],"categories_sizes":[],"default_left":[0,0,0,0,0,0,0,0,0,0,0,0,0,0,0],"id":26,"left_children":[1,3,5,7,9,11,13,-1,-1,-1,-1,-1,-1,-1,-1],"loss_changes":[4.0017502E2,5.8254837E1,4.926004E1,6.522476E0,5.88335E0,4.705372E0,1.2904358E0,0E0,0E0,0E0,0E0,0E0,0E0,0E0,0E0],"parents":[2147483647,0,0,1,1,2,2,3,3,4,4,5,5,6,6],"right_children":[2,4,6,8,10,12,14,-1,-1,-1,-1,-1,-1,-1,-1],"split_conditions":[6.01E2,5.47E2,6.39E2,2.0338982E-2,5.73E2,6.18E2,6.51E2,7.0392406E-3,1.0749533E-2,2.6745882E-3,-1.1280817E-3,-3.9008472E-3,-7.820442E-3,-1.2274662E-2,-1.645167E-2],"split_indices":[0,0,0,10,0,0,0,0,0,0,0,0,0,0,0],"split_type":[0,0,0,0,0,0,0,0,0,0,0,0,0,0,0],"sum_hessian":[7.1854517E2,4.7017682E2,2.4836836E2,3.072293E2,1.6294751E2,1.351002E2,1.1326814E2,2.3879082E2,6.8438484E1,7.0147545E1,9.279996E1,6.1172348E1,7.3927864E1,4.0541912E1,7.2726234E1],"tree_param":{"num_deleted":"0","num_feature":"12","num_nodes":"15","size_leaf_vector":"1"}},{"base_weights":[-7.418705E-4,5.6086767E-1,-9.964982E-1,7.530786E-1,1.0136298E-1,-5.032679E-1,-1.4612596E0,1.0684388E-2,6.6471407E-3,1.7610786E-3,-1.2173268E-3,-2.712586E-3,-6.54862E-3,-1.193874E-2,-1.636372E-2],"categories":[],"categories_nodes":[],"categories_segments":[],"categories_sizes":[],"default_left":[0,0,0,0,0,0,0,0,0,0,0,0,0,0,0],"id":27,"left_children":[1,3,5,7,9,11,13,-1,-1,-1,-1,-1,-1,-1,-1],"loss_changes":[4.1060995E2,4.1349716E1,5.9593597E1,8.152252E0,2.3699222E0,4.331959E0,3.4157104E0,0E0,0E0,0E0,0E0,0E0,0E0,0E0,0E0],"parents":[2147483647,0,0,1,1,2,2,3,3,4,4,5,5,6,6],"right_children":[2,4,6,8,10,12,14,-1,-1,-1,-1,-1,-1,-1,-1],"split_conditions":[5.98E2,5.52E2,6.34E2,3.72E2,5.88E2,5E-1,6.51E2,1.0684388E-2,6.6471407E-3,1.7610786E-3,-1.2173268E-3,-2.712586E-3,-6.54862E-3,-1.193874E-2,-1.636372E-2],"split_indices":[0,0,0,0,0,11,0,0,0,0,0,0,0,0,0],"split_type":[0,0,0,0,0,0,0,0,0,0,0,0,0,0,0],"sum_hessian":[7.312474E2,4.6796747E2,2.6327994E2,3.2927383E2,1.3869363E2,1.292437E2,1.3403622E2,6.842781E1,2.60846E2,1.04124275E2,3.4569366E1,5.2728577E1,7.651513E1,5.7683594E1,7.635264E1],"tree_param":{"num_deleted":"0","num_feature":"12","num_nodes":"15","size_leaf_vector":"1"}},{"base_weights":[-3.184522E-2,1.9457823E-1,-3.2219988E-1,-1.21529825E-1,6.651393E-1,-9.824011E-1,-1.366471E-1,1.8244593E-3,-6.1089257E-3,9.037645E-3,4.9472144E-3,-1.4229444E-2,-8.271266E-3,3.9334954E-3,-4.630491E-3],"categories":[],"categories_nodes":[],"categories_segments":[],"categories_sizes":[],"default_left":[0,0,0,0,0,0,0,0,0,0,0,0,0,0,0],"id":28,"left_children":[1,3,5,7,9,11,13,-1,-1,-1,-1,-1,-1,-1,-1],"loss_changes":[4.8652695E1,6.1989857E1,3.951183E1,3.7365284E1,6.1353836E0,3.0832062E0,4.4351948E1,0E0,0E0,0E0,0E0,0E0,0E0,0E0,0E0],"parents":[2147483647,0,0,1,1,2,2,3,3,4,4,5,5,6,6],"right_children":[2,4,6,8,10,12,14,-1,-1,-1,-1,-1,-1,-1,-1],"split_conditions":[9E0,1.3333334E-2,1.576182E-2,7E0,3.3333333E0,1.4084507E-2,1.1E1,1.8244593E-3,-6.1089257E-3,9.037645E-3,4.9472144E-3,-1.4229444E-2,-8.271266E-3,3.9334954E-3,-4.630491E-3],"split_indices":[2,10,10,1,5,10,1,0,0,0,0,0,0,0,0],"split_type":[0,0,0,0,0,0,0,0,0,0,0,0,0,0,0],"sum_hessian":[7.371121E2,4.1442853E2,3.2268356E2,2.4856381E2,1.6586472E2,6.9381355E1,2.5330222E2,1.5390436E2,9.465946E1,6.641427E1,9.945045E1,1.4889872E1,5.4491486E1,9.6424644E1,1.5687758E2],"tree_param":{"num_deleted":"0","num_feature":"12","num_nodes":"15","size_leaf_vector":"1"}},{"base_weights":[-1.1500519E-2,6.119933E-1,-9.397191E-1,9.1197765E-1,3.71691E-1,-5.285399E-1,-1.4512397E0,9.717155E-3,6.6733276E-3,5.522219E-3,1.8933858E-3,-3.145095E-3,-7.1674595E-3,-1.147819E-2,-1.6103297E-2],"categories":[],"categories_nodes":[],"categories_segments":[],"categories_sizes":[],"default_left":[0,0,0,0,0,0,0,0,0,0,0,0,0,0,0],"id":29,"left_children":[1,3,5,7,9,11,13,-1,-1,-1,-1,-1,-1,-1,-1],"loss_changes":[4.2029214E2,3.0808609E1,6.0221832E1,1.8360901E0,7.867279E0,6.2730446E0,3.462799E0,0E0,0E0,0E0,0E0,0E0,0E0,0E0,0E0],"parents":[2147483647,0,0,1,1,2,2,3,3,4,4,5,5,6,6],"right_children":[2,4,6,8,10,12,14,-1,-1,-1,-1,-1,-1,-1,-1],"split_conditions":[5.89E2,4.86E2,6.35E2,1.25E0,5.47E2,6.12E2,6.49E2,9.717155E-3,6.6733276E-3,5.522219E-3,1.8933858E-3,-3.145095E-3,-7.1674595E-3,-1.147819E-2,-1.6103297E-2],"split_indices":[0,0,0,7,0,0,0,0,0,0,0,0,0,0,0],"split_type":[0,0,0,0,0,0,0,0,0,0,0,0,0,0,0],"sum_hessian":[7.232305E2,4.329348E2,2.9029572E2,1.9069087E2,2.4224394E2,1.6262314E2,1.2767258E2,1.4968307E2,4.1007812E1,1.2020106E2,1.2204288E2,7.796593E1,8.465721E1,4.815416E1,7.951842E1],"tree_param":{"num_deleted":"0","num_feature":"12","num_nodes":"15","size_leaf_vector":"1"}},{"base_weights":[8.923492E-3,5.381285E-1,-1.0773537E0,7.5985396E-1,1.3369323E-1,-5.879303E-1,-1.4380417E0,9.305252E-3,5.6132353E-3,3.315066E-3,-2.6395562E-4,-3.9852345E-3,-7.082365E-3,-1.1576437E-2,-1.5953131E-2],"categories":[],"categories_nodes":[],"categories_segments":[],"categories_sizes":[],"default_left":[0,0,0,0,0,0,0,0,0,0,0,0,0,0,0],"id":30,"left_children":[1,3,5,7,9,11,13,-1,-1,-1,-1,-1,-1,-1,-1],"loss_changes":[4.2137442E2,4.404448E1,4.112039E1,9.992096E0,5.5975657E0,1.9559631E0,3.280365E0,0E0,0E0,0E0,0E0,0E0,0E0,0E0,0E0],"parents":[2147483647,0,0,1,1,2,2,3,3,4,4,5,5,6,6],"right_children":[2,4,6,8,10,12,14,-1,-1,-1,-1,-1,-1,-1,-1],"split_conditions":[6.05E2,5.47E2,6.34E2,4.69E2,5.76E2,3.3333334E-1,6.49E2,9.305252E-3,5.6132353E-3,3.315066E-3,-2.6395562E-4,-3.9852345E-3,-7.082365E-3,-1.1576437E-2,-1.5953131E-2],"split_indices":[0,0,0,0,0,11,0,0,0,0,0,0,0,0,0],"split_type":[0,0,0,0,0,0,0,0,0,0,0,0,0,0,0],"sum_hessian":[7.299865E2,4.9136407E2,2.3862245E2,3.1651913E2,1.7484497E2,1.0291731E2,1.3570514E2,1.6722754E2,1.492916E2,7.748932E1,9.735565E1,4.2490414E1,6.0426895E1,5.3270626E1,8.243452E1],"tree_param":{"num_deleted":"0","num_feature":"12","num_nodes":"15","size_leaf_vector":"1"}},{"base_weights":[1.4515321E-2,6.3176435E-1,-1.1241754E-1,8.449632E-1,4.0855038E-1,2.6268514E-2,-3.3703727E-1,9.111214E-3,5.699557E-3,5.2973614E-3,2.1022921E-3,5.908187E-4,-2.215123E-3,-3.0390583E-3,-6.870533E-3],"categories":[],"categories_nodes":[],"categories_segments":[],"categories_sizes":[],"default_left":[0,0,0,0,0,0,0,0,0,0,0,0,0,0,0],"id":31,"left_children":[1,3,5,7,9,11,13,-1,-1,-1,-1,-1,-1,-1,-1],"loss_changes":[5.6648964E1,5.350857E0,1.869965E1,3.4309006E-1,1.3506613E0,3.046298E0,2.3434734E0,0E0,0E0,0E0,0E0,0E0,0E0,0E0,0E0],"parents":[2147483647,0,0,1,1,2,2,3,3,4,4,5,5,6,6],"right_children":[2,4,6,8,10,12,14,-1,-1,-1,-1,-1,-1,-1,-1],"split_conditions":[6E0,5E0,1E1,6.666667E-1,5E-1,1.7E1,2.6E1,9.111214E-3,5.699557E-3,5.2973614E-3,2.1022921E-3,5.908187E-4,-2.215123E-3,-3.0390583E-3,-6.870533E-3],"split_indices":[1,1,1,11,11,4,4,0,0,0,0,0,0,0,0],"split_type":[0,0,0,0,0,0,0,0,0,0,0,0,0,0,0],"sum_hessian":[7.201722E2,1.21820045E2,5.983522E2,6.0170815E1,6.1649227E1,3.7075992E2,2.2759224E2,4.5705807E1,1.446501E1,3.6710384E1,2.4938843E1,3.284111E2,4.234881E1,2.1047203E2,1.7120214E1],"tree_param":{"num_deleted":"0","num_feature":"12","num_nodes":"15","size_leaf_vector":"1"}},{"base_weights":[5.953501E-4,2.3678125E-1,-2.9716954E-1,-1.5814199E-1,7.906935E-1,-6.216782E-1,8.097875E-2,1.2805576E-3,-6.5722107E-3,1.1941434E-2,6.888597E-3,-4.3410626E-3,-1.1959631E-2,4.6267584E-3,-5.783854E-3],"categories":[],"categories_nodes":[],"categories_segments":[],"categories_sizes":[],"default_left":[0,0,0,0,0,0,0,0,0,0,0,0,0,0,0],"id":32,"left_children":[1,3,5,7,9,11,13,-1,-1,-1,-1,-1,-1,-1,-1],"loss_changes":[5.0305073E1,8.744609E1,3.890193E1,3.356614E1,5.597534E0,1.758213E1,3.751155E1,0E0,0E0,0E0,0E0,0E0,0E0,0E0,0E0],"parents":[2147483647,0,0,1,1,2,2,3,3,4,4,5,5,6,6],"right_children":[2,4,6,8,10,12,14,-1,-1,-1,-1,-1,-1,-1,-1],"split_conditions":[9E0,1.3071896E-2,1.8456375E-2,7E0,6E0,1.1E1,1.3E1,1.2805576E-3,-6.5722107E-3,1.1941434E-2,6.888597E-3,-4.3410626E-3,-1.1959631E-2,4.6267584E-3,-5.783854E-3],"split_indices":[2,10,10,1,2,1,1,0,0,0,0,0,0,0,0],"split_type":[0,0,0,0,0,0,0,0,0,0,0,0,0,0,0],"sum_hessian":[7.1229285E2,3.9739105E2,3.149018E2,2.3261507E2,1.64776E2,1.6895055E2,1.4595123E2,1.4854614E2,8.406892E1,2.9965939E1,1.3481006E2,1.293397E2,3.961084E1,9.272273E1,5.32285E1],"tree_param":{"num_deleted":"0","num_feature":"12","num_nodes":"15","size_leaf_vector":"1"}},{"base_weights":[3.6282938E-2,5.075511E-1,-1.1349566E0,7.799123E-1,7.591506E-2,-6.6259176E-1,-1.4261453E0,9.889695E-3,6.0616764E-3,1.5006935E-3,-1.0286048E-3,-3.545621E-3,-8.428094E-3,-1.206605E-2,-1.5968688E-2],"categories":[],"categories_nodes":[],"categories_segments":[],"categories_sizes":[],"default_left":[0,0,0,0,0,0,0,0,0,0,0,0,0,0,0],"id":33,"left_children":[1,3,5,7,9,11,13,-1,-1,-1,-1,-1,-1,-1,-1],"loss_changes":[4.0012146E2,6.0670425E1,2.719278E1,1.0604828E1,2.6959295E0,4.1107407E0,1.8840027E0,0E0,0E0,0E0,0E0,0E0,0E0,0E0,0E0],"parents":[2147483647,0,0,1,1,2,2,3,3,4,4,5,5,6,6],"right_children":[2,4,6,8,10,12,14,-1,-1,-1,-1,-1,-1,-1,-1],"split_conditions":[6.12E2,5.47E2,6.34E2,4.49E2,5.93E2,3.3333334E-1,6.52E2,9.889695E-3,6.0616764E-3,1.5006935E-3,-1.0286048E-3,-3.545621E-3,-8.428094E-3,-1.206605E-2,-1.5968688E-2],"split_indices":[0,0,0,0,0,11,0,0,0,0,0,0,0,0,0],"split_type":[0,0,0,0,0,0,0,0,0,0,0,0,0,0,0],"sum_hessian":[7.218345E2,5.153319E2,2.0650256E2,3.1521912E2,2.0011278E2,8.062549E1,1.2587707E2,1.39876E2,1.7534312E2,1.416137E2,5.8499077E1,3.140274E1,4.9222748E1,6.0359604E1,6.551746E1],"tree_param":{"num_deleted":"0","num_feature":"12","num_nodes":"15","size_leaf_vector":"1"}},{"base_weights":[-4.415985E-2,4.1709766E-1,-1.105479E0,6.608399E-1,3.243815E-2,-7.368809E-1,-1.4710746E0,8.631437E-3,4.779308E-3,2.6261648E-3,-1.0172889E-3,-7.694628E-3,-4.4535194E-3,-1.1774821E-2,-1.5852176E-2],"categories":[],"categories_nodes":[],"categories_segments":[],"categories_sizes":[],"default_left":[0,0,0,0,0,0,0,0,0,0,0,0,0,0,0],"id":34,"left_children":[1,3,5,7,9,11,13,-1,-1,-1,-1,-1,-1,-1,-1],"loss_changes":[3.5396558E2,4.72324E1,2.7889923E1,1.0796783E1,6.127329E0,5.505066E-1,8.3470154E-1,0E0,0E0,0E0,0E0,0E0,0E0,0E0,0E0],"parents":[2147483647,0,0,1,1,2,2,3,3,4,4,5,5,6,6],"right_children":[2,4,6,8,10,12,14,-1,-1,-1,-1,-1,-1,-1,-1],"split_conditions":[6.11E2,5.47E2,6.41E2,4.56E2,5.73E2,2.1E1,6.51E2,8.631437E-3,4.779308E-3,2.6261648E-3,-1.0172889E-3,-7.694628E-3,-4.4535194E-3,-1.1774821E-2,-1.5852176E-2],"split_indices":[0,0,0,0,0,4,0,0,0,0,0,0,0,0,0],"split_type":[0,0,0,0,0,0,0,0,0,0,0,0,0,0,0],"sum_hessian":[7.201426E2,5.026134E2,2.1752919E2,3.0700226E2,1.9561116E2,1.1057223E2,1.06956955E2,1.4312387E2,1.6387839E2,7.1503296E1,1.24107864E2,9.724482E1,1.3327408E1,3.469362E1,7.2263336E1],"tree_param":{"num_deleted":"0","num_feature":"12","num_nodes":"15","size_leaf_vector":"1"}},{"base_weights":[-1.0506644E-2,4.8559058E-1,-9.9328345E-1,7.142177E-1,6.783997E-2,-4.7306117E-1,-1.3646334E0,9.987095E-3,5.7433206E-3,2.0979354E-3,-6.594466E-4,-5.2210907E-3,4.891744E-4,-1.088825E-2,-1.5826708E-2],"categories":[],"categories_nodes":[],"categories_segments":[],"categories_sizes":[],"default_left":[0,0,0,0,0,0,0,0,0,0,0,0,0,0,0],"id":35,"left_children":[1,3,5,7,9,11,13,-1,-1,-1,-1,-1,-1,-1,-1],"loss_changes":[3.5668216E2,4.6362495E1,4.6440353E1,1.1638123E1,3.3180795E0,2.7139816E0,5.9783325E0,0E0,0E0,0E0,0E0,0E0,0E0,0E0,0E0],"parents":[2147483647,0,0,1,1,2,2,3,3,4,4,5,5,6,6],"right_children":[2,4,6,8,10,12,14,-1,-1,-1,-1,-1,-1,-1,-1],"split_conditions":[6.03E2,5.47E2,6.32E2,4.17E2,5.76E2,2.096436E-2,6.51E2,9.987095E-3,5.7433206E-3,2.0979354E-3,-6.594466E-4,-5.2210907E-3,4.891744E-4,-1.088825E-2,-1.5826708E-2],"split_indices":[0,0,0,0,0,10,0,0,0,0,0,0,0,0,0],"split_type":[0,0,0,0,0,0,0,0,0,0,0,0,0,0,0],"sum_hessian":[7.285924E2,4.8468594E2,2.4390642E2,3.1256207E2,1.721239E2,1.03010445E2,1.4089598E2,9.9992836E1,2.1256923E2,8.3098816E1,8.9025085E1,9.4162094E1,8.848353E0,6.61763E1,7.471968E1],"tree_param":{"num_deleted":"0","num_feature":"12","num_nodes":"15","size_leaf_vector":"1"}},{"base_weights":[-3.4493297E-2,4.868949E-1,-9.7727376E-1,6.882792E-1,-2.1106119E-3,-5.4508185E-1,-1.3844308E0,8.058307E-3,4.170024E-3,-1.7249698E-3,7.0699566E-4,-3.4124865E-3,-6.464821E-3,-1.0496729E-2,-1.5577027E-2],"categories":[],"categories_nodes":[],"categories_segments":[],"categories_sizes":[],"default_left":[0,0,0,0,0,0,0,0,0,0,0,0,0,0,0],"id":36,"left_children":[1,3,5,7,9,11,13,-1,-1,-1,-1,-1,-1,-1,-1],"loss_changes":[3.558064E2,4.5907433E1,4.422252E1,1.0025009E1,1.7237141E0,2.304348E0,5.188843E0,0E0,0E0,0E0,0E0,0E0,0E0,0E0,0E0],"parents":[2147483647,0,0,1,1,2,2,3,3,4,4,5,5,6,6],"right_children":[2,4,6,8,10,12,14,-1,-1,-1,-1,-1,-1,-1,-1],"split_conditions":[5.98E2,5.55E2,6.35E2,5.07E2,4E-1,6.12E2,6.49E2,8.058307E-3,4.170024E-3,-1.7249698E-3,7.0699566E-4,-3.4124865E-3,-6.464821E-3,-1.0496729E-2,-1.5577027E-2],"split_indices":[0,0,0,0,7,0,0,0,0,0,0,0,0,0,0],"split_type":[0,0,0,0,0,0,0,0,0,0,0,0,0,0,0],"sum_hessian":[7.20887E2,4.6464728E2,2.5623972E2,3.2867834E2,1.3596895E2,1.2600021E2,1.302395E2,2.272494E2,1.0142893E2,4.0092644E1,9.5876305E1,4.403327E1,8.196694E1,4.8031193E1,8.2208305E1],"tree_param":{"num_deleted":"0","num_feature":"12","num_nodes":"15","size_leaf_vector":"1"}},{"base_weights":[-2.7818333E-2,3.705761E-1,-1.1585059E0,6.5630424E-1,-3.3538956E-2,-7.5870997E-1,-1.4706791E-2,8.618139E-3,4.9093706E-3,1.3030432E-3,-2.5052913E-3,-6.689956E-3,-9.292296E-3],"categories":[],"categories_nodes":[],"categories_segments":[],"categories_sizes":[],"default_left":[0,0,0,0,0,0,0,0,0,0,0,0,0],"id":37,"left_children":[1,3,5,7,9,11,-1,-1,-1,-1,-1,-1,-1],"loss_changes":[3.3055353E2,6.2697205E1,2.218689E1,1.017215E1,8.091283E0,3.9730835E-1,0E0,0E0,0E0,0E0,0E0,0E0,0E0],"parents":[2147483647,0,0,1,1,2,2,3,3,4,4,5,5],"right_children":[2,4,6,8,10,12,-1,-1,-1,-1,-1,-1,-1],"split_conditions":[6.18E2,5.47E2,6.41E2,4.48E2,5.89E2,6.34E2,-1.4706791E-2,8.618139E-3,4.9093706E-3,1.3030432E-3,-2.5052913E-3,-6.689956E-3,-9.292296E-3],"split_indices":[0,0,0,0,0,0,0,0,0,0,0,0,0],"split_type":[0,0,0,0,0,0,0,0,0,0,0,0,0],"sum_hessian":[7.3088434E2,5.4120184E2,1.8968248E2,3.1649152E2,2.2471031E2,8.5425224E1,1.0425726E2,1.3830103E2,1.7819049E2,1.2837622E2,9.633409E1,6.0814312E1,2.4610907E1],"tree_param":{"num_deleted":"0","num_feature":"12","num_nodes":"13","size_leaf_vector":"1"}},{"base_weights":[-2.0116575E-2,4.2447582E-1,-1.0663736E0,7.045346E-1,-2.3065155E-2,-6.4783394E-1,-1.4275893E0,8.773646E-3,5.035184E-3,1.9523831E-3,-1.7089295E-3,-5.177411E-3,-8.729549E-3,-1.1774163E-2,-1.5465609E-2],"categories":[],"categories_nodes":[],"categories_segments":[],"categories_sizes":[],"default_left":[0,0,0,0,0,0,0,0,0,0,0,0,0,0,0],"id":38,"left_children":[1,3,5,7,9,11,13,-1,-1,-1,-1,-1,-1,-1,-1],"loss_changes":[3.3361023E2,6.311537E1,3.0946335E1,1.0095642E1,6.3494935E0,2.304016E0,6.482239E-1,0E0,0E0,0E0,0E0,0E0,0E0,0E0,0E0],"parents":[2147483647,0,0,1,1,2,2,3,3,4,4,5,5,6,6],"right_children":[2,4,6,8,10,12,14,-1,-1,-1,-1,-1,-1,-1,-1],"split_conditions":[6.11E2,5.47E2,6.39E2,4.69E2,5.76E2,6.3E2,6.51E2,8.773646E-3,5.035184E-3,1.9523831E-3,-1.7089295E-3,-5.177411E-3,-8.729549E-3,-1.1774163E-2,-1.5465609E-2],"split_indices":[0,0,0,0,0,0,0,0,0,0,0,0,0,0,0],"split_type":[0,0,0,0,0,0,0,0,0,0,0,0,0,0,0],"sum_hessian":[7.142381E2,5.018678E2,2.1237032E2,3.081652E2,1.937026E2,1.0032002E2,1.1205029E2,1.6298589E2,1.451793E2,7.801441E1,1.156882E2,6.671597E1,3.3604053E1,4.138047E1,7.066982E1],"tree_param":{"num_deleted":"0","num_feature":"12","num_nodes":"15","size_leaf_vector":"1"}},{"base_weights":[-1.697513E-2,4.152566E-1,-1.071757E0,6.7837167E-1,-5.8444146E-2,-6.7231125E-1,-1.4717554E-2,8.536556E-3,5.271799E-3,-7.229192E-3,-1.615356E-4,-3.412166E-3,-7.3941117E-3],"categories":[],"categories_nodes":[],"categories_segments":[],"categories_sizes":[],"default_left":[0,0,0,0,0,0,0,0,0,0,0,0,0],"id":39,"left_children":[1,3,5,7,9,11,-1,-1,-1,-1,-1,-1,-1],"loss_changes":[3.2487305E2,6.306353E1,3.1608932E1,7.940689E0,5.0938597E0,1.9852257E0,0E0,0E0,0E0,0E0,0E0,0E0,0E0],"parents":[2147483647,0,0,1,1,2,2,3,3,4,4,5,5],"right_children":[2,4,6,8,10,12,-1,-1,-1,-1,-1,-1,-1],"split_conditions":[6.12E2,5.55E2,6.41E2,4.56E2,5.58E2,6.18E2,-1.4717554E-2,8.536556E-3,5.271799E-3,-7.229192E-3,-1.615356E-4,-3.412166E-3,-7.3941117E-3],"split_indices":[0,0,0,0,0,0,0,0,0,0,0,0,0],"split_type":[0,0,0,0,0,0,0,0,0,0,0,0,0],"sum_hessian":[7.0961707E2,5.0399707E2,2.0561998E2,3.2360428E2,1.8039278E2,1.0489305E2,1.0072694E2,1.4663454E2,1.7696976E2,9.349595E0,1.7104318E2,1.92137E1,8.567935E1],"tree_param":{"num_deleted":"0","num_feature":"12","num_nodes":"13","size_leaf_vector":"1"}},{"base_weights":[-1.2572131E-2,5.2854365E-1,-8.890697E-1,7.009685E-1,1.14879295E-1,-5.138318E-1,-1.3411316E0,9.2394445E-3,5.942205E-3,1.5441286E-3,-4.5883143E-3,-3.2992926E-3,-6.6625117E-3,-1.0638567E-2,-1.5352417E-2],"categories":[],"categories_nodes":[],"categories_segments":[],"categories_sizes":[],"default_left":[0,0,0,0,0,0,0,0,0,0,0,0,0,0,0],"id":40,"left_children":[1,3,5,7,9,11,13,-1,-1,-1,-1,-1,-1,-1,-1],"loss_changes":[3.43891E2,3.1856537E1,4.591295E1,6.7012024E0,3.1384656E0,3.9774323E0,4.2561493E0,0E0,0E0,0E0,0E0,0E0,0E0,0E0,0E0],"parents":[2147483647,0,0,1,1,2,2,3,3,4,4,5,5,6,6],"right_children":[2,4,6,8,10,12,14,-1,-1,-1,-1,-1,-1,-1,-1],"split_conditions":[5.92E2,5.47E2,6.34E2,4.12E2,4E0,6.12E2,6.51E2,9.2394445E-3,5.942205E-3,1.5441286E-3,-4.5883143E-3,-3.2992926E-3,-6.6625117E-3,-1.0638567E-2,-1.5352417E-2],"split_indices":[0,0,0,0,6,0,0,0,0,0,0,0,0,0,0],"split_type":[0,0,0,0,0,0,0,0,0,0,0,0,0,0,0],"sum_hessian":[7.2208386E2,4.4682614E2,2.7525775E2,3.1463654E2,1.3218959E2,1.5216055E2,1.230972E2,9.81458E1,2.1649074E2,1.24693436E2,7.496164E0,7.110967E1,8.105087E1,5.46928E1,6.8404396E1],"tree_param":{"num_deleted":"0","num_feature":"12","num_nodes":"15","size_leaf_vector":"1"}},{"base_weights":[2.8455999E-2,5.8178556E-1,-7.914131E-1,7.5871795E-1,1.3815977E-1,-4.2722732E-1,-1.4043459E0,1.3511702E-2,7.1844216E-3,8.274651E-4,5.5000344E-3,-2.3948918E-3,-6.635155E-3,-1.1034404E-2,-1.5222819E-2],"categories":[],"categories_nodes":[],"categories_segments":[],"categories_sizes":[],"default_left":[0,0,0,0,0,0,0,0,0,0,0,0,0,0,0],"id":41,"left_children":[1,3,5,7,9,11,13,-1,-1,-1,-1,-1,-1,-1,-1],"loss_changes":[3.262001E2,3.3536255E1,6.3780823E1,5.858307E0,2.7667286E0,7.920326E0,1.2896729E0,0E0,0E0,0E0,0E0,0E0,0E0,0E0,0E0],"parents":[2147483647,0,0,1,1,2,2,3,3,4,4,5,5,6,6],"right_children":[2,4,6,8,10,12,14,-1,-1,-1,-1,-1,-1,-1,-1],"split_conditions":[5.88E2,5.47E2,6.41E2,2.31E2,5.84E2,6.18E2,6.51E2,1.3511702E-2,7.1844216E-3,8.274651E-4,5.5000344E-3,-2.3948918E-3,-6.635155E-3,-1.1034404E-2,-1.5222819E-2],"split_indices":[0,0,0,0,0,0,0,0,0,0,0,0,0,0,0],"split_type":[0,0,0,0,0,0,0,0,0,0,0,0,0,0,0],"sum_hessian":[7.16022E2,4.2776144E2,2.8826056E2,3.0503726E2,1.2272418E2,1.8241856E2,1.0584197E2,1.6309137E1,2.8872812E2,1.0975774E2,1.2966445E1,1.0333561E2,7.908296E1,3.4176765E1,7.1665215E1],"tree_param":{"num_deleted":"0","num_feature":"12","num_nodes":"15","size_leaf_vector":"1"}},{"base_weights":[-1.2076491E-2,5.527457E-1,-8.087006E-1,7.6634556E-1,2.8648233E-1,-4.0281278E-1,-1.3308716E0,9.133006E-3,6.3006473E-3,3.1963587E-3,-4.42193E-3,-2.3278152E-3,-5.8488105E-3,-1.0417927E-2,-1.4972814E-2],"categories":[],"categories_nodes":[],"categories_segments":[],"categories_sizes":[],"default_left":[0,0,0,0,0,0,0,0,0,0,0,0,0,0,0],"id":42,"left_children":[1,3,5,7,9,11,13,-1,-1,-1,-1,-1,-1,-1,-1],"loss_changes":[3.2143378E2,2.344519E1,6.2007904E1,3.7641907E0,4.7650547E0,5.0244427E0,3.86409E0,0E0,0E0,0E0,0E0,0E0,0E0,0E0,0E0],"parents":[2147483647,0,0,1,1,2,2,3,3,4,4,5,5,6,6],"right_children":[2,4,6,8,10,12,14,-1,-1,-1,-1,-1,-1,-1,-1],"split_conditions":[5.86E2,5.08E2,6.34E2,4E0,3.5E0,6.12E2,6.49E2,9.133006E-3,6.3006473E-3,3.1963587E-3,-4.42193E-3,-2.3278152E-3,-5.8488105E-3,-1.0417927E-2,-1.4972814E-2],"split_indices":[0,0,0,5,7,0,0,0,0,0,0,0,0,0,0],"split_type":[0,0,0,0,0,0,0,0,0,0,0,0,0,0,0],"sum_hessian":[7.1138495E2,4.1652194E2,2.9486304E2,2.2955376E2,1.8696817E2,1.6739929E2,1.27463745E2,1.0633622E2,1.2321754E2,1.7963701E2,7.3311663E0,8.832837E1,7.907092E1,5.054687E1,7.691687E1],"tree_param":{"num_deleted":"0","num_feature":"12","num_nodes":"15","size_leaf_vector":"1"}},{"base_weights":[6.019148E-3,4.469526E-1,-1.0590183E0,7.0681745E-1,3.2956425E-2,-6.259136E-1,-1.298876E0,8.711327E-3,5.640418E-3,2.1282465E-3,-1.2299559E-3,-4.1565E-3,-8.410861E-3,-1.0361073E-2,-1.4862781E-2],"categories":[],"categories_nodes":[],"categories_segments":[],"categories_sizes":[],"default_left":[0,0,0,0,0,0,0,0,0,0,0,0,0,0,0],"id":43,"left_children":[1,3,5,7,9,11,13,-1,-1,-1,-1,-1,-1,-1,-1],"loss_changes":[3.3411563E2,5.4095108E1,2.042102E1,6.5131683E0,5.526135E0,2.9657764E0,4.2233124E0,0E0,0E0,0E0,0E0,0E0,0E0,0E0,0E0],"parents":[2147483647,0,0,1,1,2,2,3,3,4,4,5,5,6,6],"right_children":[2,4,6,8,10,12,14,-1,-1,-1,-1,-1,-1,-1,-1],"split_conditions":[6.11E2,5.47E2,6.32E2,4.52E2,5.79E2,1.5E1,6.49E2,8.711327E-3,5.640418E-3,2.1282465E-3,-1.2299559E-3,-4.1565E-3,-8.410861E-3,-1.0361073E-2,-1.4862781E-2],"split_indices":[0,0,0,0,0,4,0,0,0,0,0,0,0,0,0],"split_type":[0,0,0,0,0,0,0,0,0,0,0,0,0,0,0],"sum_hessian":[7.0846185E2,5.016468E2,2.0681502E2,3.075421E2,1.9410469E2,7.564294E1,1.3117209E2,1.3942772E2,1.681144E2,8.988651E1,1.04218185E2,4.0482025E1,3.516091E1,5.868257E1,7.248952E1],"tree_param":{"num_deleted":"0","num_feature":"12","num_nodes":"15","size_leaf_vector":"1"}},{"base_weights":[2.650522E-2,4.653123E-1,-1.0289125E0,7.014454E-1,9.487996E-2,-6.256983E-1,-1.3838121E-2,6.2401956E-3,1.0494858E-2,3.0079456E-3,-2.6367433E-4,-6.841202E-3,-3.0025416E-3],"categories":[],"categories_nodes":[],"categories_segments":[],"categories_sizes":[],"default_left":[0,0,0,0,0,0,0,0,0,0,0,0,0],"id":44,"left_children":[1,3,5,7,9,11,-1,-1,-1,-1,-1,-1,-1],"loss_changes":[3.3650073E2,4.478601E1,2.9237152E1,7.4561462E0,5.042699E0,1.6432381E0,0E0,0E0,0E0,0E0,0E0,0E0,0E0],"parents":[2147483647,0,0,1,1,2,2,3,3,4,4,5,5],"right_children":[2,4,6,8,10,12,-1,-1,-1,-1,-1,-1,-1],"split_conditions":[6.11E2,5.47E2,6.39E2,2.166065E-2,5.73E2,7.5E0,-1.3838121E-2,6.2401956E-3,1.0494858E-2,3.0079456E-3,-2.6367433E-4,-6.841202E-3,-3.0025416E-3],"split_indices":[0,0,0,10,0,5,0,0,0,0,0,0,0],"split_type":[0,0,0,0,0,0,0,0,0,0,0,0,0],"sum_hessian":[7.23537E2,5.116492E2,2.1188777E2,3.1164798E2,2.0000122E2,1.0113226E2,1.1075551E2,2.583617E2,5.3286274E1,7.329796E1,1.2670327E2,8.433904E1,1.6793224E1],"tree_param":{"num_deleted":"0","num_feature":"12","num_nodes":"13","size_leaf_vector":"1"}},{"base_weights":[-3.4675445E-2,1.6571319E-1,-2.8429833E-1,-1.0693166E-1,5.549644E-1,-8.718801E-1,-1.2271309E-1,1.6212076E-3,-5.3434377E-3,4.5716483E-3,9.830017E-3,-1.3506447E-2,-7.4173366E-3,2.8747837E-3,-4.0022414E-3],"categories":[],"categories_nodes":[],"categories_segments":[],"categories_sizes":[],"default_left":[0,0,0,0,0,0,0,0,0,0,0,0,0,0,0],"id":45,"left_children":[1,3,5,7,9,11,13,-1,-1,-1,-1,-1,-1,-1,-1],"loss_changes":[3.5820942E1,4.226322E1,3.0108267E1,2.7149256E1,6.1884956E0,2.7664757E0,2.883433E1,0E0,0E0,0E0,0E0,0E0,0E0,0E0,0E0],"parents":[2147483647,0,0,1,1,2,2,3,3,4,4,5,5,6,6],"right_children":[2,4,6,8,10,12,14,-1,-1,-1,-1,-1,-1,-1,-1],"split_conditions":[9E0,1.3274336E-2,1.576182E-2,7E0,1.986755E-2,1.3861386E-2,1.1E1,1.6212076E-3,-5.3434377E-3,4.5716483E-3,9.830017E-3,-1.3506447E-2,-7.4173366E-3,2.8747837E-3,-4.0022414E-3],"split_indices":[2,10,10,2,10,10,2,0,0,0,0,0,0,0,0],"split_type":[0,0,0,0,0,0,0,0,0,0,0,0,0,0,0],"sum_hessian":[7.131969E2,3.958924E2,3.1730453E2,2.3345822E2,1.6243416E2,6.701614E1,2.5028839E2,1.4384195E2,8.961629E1,1.347484E2,2.768577E1,1.1317194E1,5.5698948E1,1.0097803E2,1.4931036E2],"tree_param":{"num_deleted":"0","num_feature":"12","num_nodes":"15","size_leaf_vector":"1"}},{"base_weights":[-1.9985627E-2,5.0970125E-1,-8.604721E-1,7.021835E-1,1.408144E-1,-4.8242176E-1,-1.3458054E0,8.729903E-3,5.3486214E-3,2.790083E-3,-3.2688555E-4,-3.2517742E-3,-5.730116E-3,-1.1208632E-2,-1.4924744E-2],"categories":[],"categories_nodes":[],"categories_segments":[],"categories_sizes":[],"default_left":[0,0,0,0,0,0,0,0,0,0,0,0,0,0,0],"id":46,"left_children":[1,3,5,7,9,11,13,-1,-1,-1,-1,-1,-1,-1,-1],"loss_changes":[3.1786926E2,3.0952599E1,4.9668182E1,7.5148773E0,3.659701E0,1.9639168E0,1.4503479E0,0E0,0E0,0E0,0E0,0E0,0E0,0E0,0E0],"parents":[2147483647,0,0,1,1,2,2,3,3,4,4,5,5,6,6],"right_children":[2,4,6,8,10,12,14,-1,-1,-1,-1,-1,-1,-1,-1],"split_conditions":[5.91E2,5.4E2,6.35E2,4.53E2,1.5E1,1E0,6.52E2,8.729903E-3,5.3486214E-3,2.790083E-3,-3.2688555E-4,-3.2517742E-3,-5.730116E-3,-1.1208632E-2,-1.4924744E-2],"split_indices":[0,0,0,0,4,9,0,0,0,0,0,0,0,0,0],"split_type":[0,0,0,0,0,0,0,0,0,0,0,0,0,0,0],"sum_hessian":[7.110231E2,4.3651517E2,2.745079E2,2.8595224E2,1.5056293E2,1.559903E2,1.185176E2,1.3837183E2,1.4758041E2,8.330162E1,6.726131E1,5.953492E1,9.6455376E1,5.189337E1,6.662423E1],"tree_param":{"num_deleted":"0","num_feature":"12","num_nodes":"15","size_leaf_vector":"1"}},{"base_weights":[1.724524E-3,5.151758E-1,-9.940943E-2,4.982521E-2,9.347659E-3,-4.7306523E-1,-1.5550809E-3,3.977537E-3,-3.98876E-3,-3.5297258E-3,-1.1749414E-2,4.353754E-3,-2.3036683E-3],"categories":[],"categories_nodes":[],"categories_segments":[],"categories_sizes":[],"default_left":[0,0,0,0,0,0,0,0,0,0,0,0,0],"id":47,"left_children":[1,3,5,7,-1,9,11,-1,-1,-1,-1,-1,-1],"loss_changes":[3.706136E1,2.2862162E1,2.1801567E1,9.178852E0,0E0,9.808447E0,4.754299E1,0E0,0E0,0E0,0E0,0E0,0E0],"parents":[2147483647,0,0,1,1,2,2,3,3,5,5,6,6],"right_children":[2,4,6,8,-1,10,12,-1,-1,-1,-1,-1,-1],"split_conditions":[6E0,9.771987E-3,1.2612613E-2,5E0,9.347659E-3,8E0,9E0,3.977537E-3,-3.98876E-3,-3.5297258E-3,-1.1749414E-2,4.353754E-3,-2.3036683E-3],"split_indices":[2,10,10,1,0,1,2,0,0,0,0,0,0],"split_type":[0,0,0,0,0,0,0,0,0,0,0,0,0],"sum_hessian":[7.10736E2,1.1594564E2,5.9479034E2,5.57707E1,6.017494E1,1.2224553E2,4.7254483E2,3.1508743E1,2.4261957E1,1.0630999E2,1.5935538E1,1.619455E2,3.1059933E2],"tree_param":{"num_deleted":"0","num_feature":"12","num_nodes":"13","size_leaf_vector":"1"}},{"base_weights":[-1.0647177E-2,4.5977154E-1,-8.919165E-1,7.1185166E-1,2.213215E-1,-6.16406E-1,-1.4523859E-2,6.6447435E-3,1.0384561E-2,3.3891073E-3,-1.6966827E-4,-4.186758E-3,-7.822528E-3],"categories":[],"categories_nodes":[],"categories_segments":[],"categories_sizes":[],"default_left":[0,0,0,0,0,0,0,0,0,0,0,0,0],"id":48,"left_children":[1,3,5,7,9,11,-1,-1,-1,-1,-1,-1,-1],"loss_changes":[2.974555E2,2.7883842E1,3.7215256E1,2.4733734E0,6.805972E0,5.0840683E0,0E0,0E0,0E0,0E0,0E0,0E0,0E0],"parents":[2147483647,0,0,1,1,2,2,3,3,4,4,5,5],"right_children":[2,4,6,8,10,12,-1,-1,-1,-1,-1,-1,-1],"split_conditions":[5.98E2,5.07E2,6.46E2,2.4509804E-2,5.75E2,6.2E2,-1.4523859E-2,6.6447435E-3,1.0384561E-2,3.3891073E-3,-1.6966827E-4,-4.186758E-3,-7.822528E-3],"split_indices":[0,0,0,10,0,0,0,0,0,0,0,0,0],"split_type":[0,0,0,0,0,0,0,0,0,0,0,0,0],"sum_hessian":[7.145276E2,4.6632318E2,2.4820439E2,2.2523526E2,2.4108792E2,1.6851634E2,7.968805E1,2.0067682E2,2.455845E1,1.6100342E2,8.008451E1,7.928077E1,8.923557E1],"tree_param":{"num_deleted":"0","num_feature":"12","num_nodes":"13","size_leaf_vector":"1"}},{"base_weights":[1.3695747E-2,5.068966E-1,-8.238068E-1,7.49019E-1,2.537525E-1,-4.0170562E-1,-1.241297E0,8.605443E-3,5.7184002E-3,4.1069016E-3,1.0968292E-3,-1.7652087E-3,-5.406842E-3,-9.666142E-3,-1.4443948E-2],"categories":[],"categories_nodes":[],"categories_segments":[],"categories_sizes":[],"default_left":[0,0,0,0,0,0,0,0,0,0,0,0,0,0,0],"id":49,"left_children":[1,3,5,7,9,11,13,-1,-1,-1,-1,-1,-1,-1,-1],"loss_changes":[2.940649E2,2.7175888E1,4.575215E1,3.771759E0,4.936043E0,4.0325985E0,5.266464E0,0E0,0E0,0E0,0E0,0E0,0E0,0E0,0E0],"parents":[2147483647,0,0,1,1,2,2,3,3,4,4,5,5,6,6],"right_children":[2,4,6,8,10,12,14,-1,-1,-1,-1,-1,-1,-1,-1],"split_conditions":[5.92E2,5.08E2,6.31E2,4.5E0,5.55E2,1E0,6.49E2,8.605443E-3,5.7184002E-3,4.1069016E-3,1.0968292E-3,-1.7652087E-3,-5.406842E-3,-9.666142E-3,-1.4443948E-2],"split_indices":[0,0,0,5,0,9,0,0,0,0,0,0,0,0,0],"split_type":[0,0,0,0,0,0,0,0,0,0,0,0,0,0,0],"sum_hessian":[7.0890686E2,4.465362E2,2.623707E2,2.267349E2,2.1980128E2,1.3192844E2,1.3044226E2,1.355976E2,9.113729E1,1.03873726E2,1.1592756E2,5.164846E1,8.027997E1,5.9121502E1,7.1320755E1],"tree_param":{"num_deleted":"0","num_feature":"12","num_nodes":"15","size_leaf_vector":"1"}},{"base_weights":[1.3562727E-2,4.5459732E-1,-8.6745304E-1,7.6553595E-1,1.588615E-1,-5.236307E-1,-1.3064077E0,7.97565E-3,3.0413622E-3,3.19034E-3,-8.7267265E-4,-4.411677E-3,-7.464213E-3,-9.910934E-3,-1.4665855E-2],"categories":[],"categories_nodes":[],"categories_segments":[],"categories_sizes":[],"default_left":[0,0,0,0,0,0,0,0,0,0,0,0,0,0,0],"id":50,"left_children":[1,3,5,7,9,11,13,-1,-1,-1,-1,-1,-1,-1,-1],"loss_changes":[2.7371283E2,4.298194E1,3.4441513E1,3.0118866E0,9.60091E0,1.9731636E0,2.9824066E0,0E0,0E0,0E0,0E0,0E0,0E0,0E0,0E0],"parents":[2147483647,0,0,1,1,2,2,3,3,4,4,5,5,6,6],"right_children":[2,4,6,8,10,12,14,-1,-1,-1,-1,-1,-1,-1,-1],"split_conditions":[6.01E2,5.11E2,6.39E2,1.9E1,5.73E2,1.791531E-2,6.51E2,7.97565E-3,3.0413622E-3,3.19034E-3,-8.7267265E-4,-4.411677E-3,-7.464213E-3,-9.910934E-3,-1.4665855E-2],"split_indices":[0,0,0,4,0,10,0,0,0,0,0,0,0,0,0],"split_type":[0,0,0,0,0,0,0,0,0,0,0,0,0,0,0],"sum_hessian":[7.014093E2,4.6790372E2,2.3350558E2,2.2692763E2,2.409761E2,1.3278654E2,1.0071905E2,2.1117555E2,1.5752062E1,1.457091E2,9.5267E1,1.0017747E2,3.2609074E1,3.7560795E1,6.3158253E1],"tree_param":{"num_deleted":"0","num_feature":"12","num_nodes":"15","size_leaf_vector":"1"}},{"base_weights":[1.3722108E-2,4.2416927E-1,-1.0108328E0,6.704944E-1,3.4144454E-2,-7.4913096E-1,-1.4493359E-2,8.267866E-3,5.1993965E-3,1.7369172E-3,-1.6681124E-3,-6.3180435E-3,-9.109049E-3],"categories":[],"categories_nodes":[],"categories_segments":[],"categories_sizes":[],"default_left":[0,0,0,0,0,0,0,0,0,0,0,0,0],"id":51,"left_children":[1,3,5,7,9,11,-1,-1,-1,-1,-1,-1,-1],"loss_changes":[2.9856857E2,4.8662964E1,2.1676376E1,6.6635284E0,5.5900073E0,1.6095657E0,0E0,0E0,0E0,0E0,0E0,0E0,0E0],"parents":[2147483647,0,0,1,1,2,2,3,3,4,4,5,5],"right_children":[2,4,6,8,10,12,-1,-1,-1,-1,-1,-1,-1],"split_conditions":[6.12E2,5.47E2,6.49E2,4.6E2,5.87E2,6.34E2,-1.4493359E-2,8.267866E-3,5.1993965E-3,1.7369172E-3,-1.6681124E-3,-6.3180435E-3,-9.109049E-3],"split_indices":[0,0,0,0,0,0,0,0,0,0,0,0,0],"split_type":[0,0,0,0,0,0,0,0,0,0,0,0,0],"sum_hessian":[7.069596E2,5.053787E2,2.0158089E2,3.090902E2,1.962885E2,1.2878416E2,7.2796715E1,1.4834964E2,1.6074055E2,1.159643E2,8.0324196E1,7.891166E1,4.987251E1],"tree_param":{"num_deleted":"0","num_feature":"12","num_nodes":"13","size_leaf_vector":"1"}},{"base_weights":[-1.1075019E-2,3.3669356E-1,-1.5978982E-1,-2.1355992E-2,5.736801E-1,-2.8532156E-1,2.1584217E-1,4.5531397E-3,-3.8115804E-3,8.049777E-3,1.0597466E-3,-1.0691775E-3,-6.4043705E-3,6.617761E-3,-4.281957E-3],"categories":[],"categories_nodes":[],"categories_segments":[],"categories_sizes":[],"default_left":[0,0,0,0,0,0,0,0,0,0,0,0,0,0,0],"id":52,"left_children":[1,3,5,7,9,11,13,-1,-1,-1,-1,-1,-1,-1,-1],"loss_changes":[3.650013E1,1.795736E1,2.33993E1,1.4949197E1,1.3639629E1,2.3408895E1,3.6227287E1,0E0,0E0,0E0,0E0,0E0,0E0,0E0,0E0],"parents":[2147483647,0,0,1,1,2,2,3,3,4,4,5,5,6,6],"right_children":[2,4,6,8,10,12,14,-1,-1,-1,-1,-1,-1,-1,-1],"split_conditions":[5E0,1.0869565E-2,1.9639935E-2,5E0,1.5E1,1E1,1.3E1,4.5531397E-3,-3.8115804E-3,8.049777E-3,1.0597466E-3,-1.0691775E-3,-6.4043705E-3,6.617761E-3,-4.281957E-3],"split_indices":[3,10,10,1,4,2,2,0,0,0,0,0,0,0,0],"split_type":[0,0,0,0,0,0,0,0,0,0,0,0,0,0,0],"sum_hessian":[7.026879E2,2.0991263E2,4.927753E2,8.414602E1,1.2576661E2,3.6961502E2,1.2316029E2,3.602349E1,4.812253E1,8.342713E1,4.2339478E1,2.4731827E2,1.2229674E2,7.274802E1,5.0412277E1],"tree_param":{"num_deleted":"0","num_feature":"12","num_nodes":"15","size_leaf_vector":"1"}},{"base_weights":[1.4065859E-2,4.331085E-1,-8.7136567E-1,6.1464655E-1,6.739855E-2,-5.449694E-1,-1.3364035E0,7.5987047E-3,4.8275837E-3,1.682636E-3,-1.1123525E-3,-2.6288049E-3,-6.170799E-3,-1.057701E-2,-1.4430734E-2],"categories":[],"categories_nodes":[],"categories_segments":[],"categories_sizes":[],"default_left":[0,0,0,0,0,0,0,0,0,0,0,0,0,0,0],"id":53,"left_children":[1,3,5,7,9,11,13,-1,-1,-1,-1,-1,-1,-1,-1],"loss_changes":[2.6763153E2,3.2440468E1,3.407939E1,5.7124863E0,2.9846144E0,2.5778122E0,5.20813E-1,0E0,0E0,0E0,0E0,0E0,0E0,0E0,0E0],"parents":[2147483647,0,0,1,1,2,2,3,3,4,4,5,5,6,6],"right_children":[2,4,6,8,10,12,14,-1,-1,-1,-1,-1,-1,-1,-1],"split_conditions":[6.03E2,5.51E2,6.41E2,4.56E2,5.86E2,6.11E2,6.51E2,7.5987047E-3,4.8275837E-3,1.682636E-3,-1.1123525E-3,-2.6288049E-3,-6.170799E-3,-1.057701E-2,-1.4430734E-2],"split_indices":[0,0,0,0,0,0,0,0,0,0,0,0,0,0,0],"split_type":[0,0,0,0,0,0,0,0,0,0,0,0,0,0,0],"sum_hessian":[7.182877E2,4.8806876E2,2.3021898E2,3.2547983E2,1.6258893E2,1.3718837E2,9.303061E1,1.5150902E2,1.7397083E2,1.0396977E2,5.861915E1,2.9348475E1,1.078399E2,3.0282728E1,6.2747883E1],"tree_param":{"num_deleted":"0","num_feature":"12","num_nodes":"15","size_leaf_vector":"1"}},{"base_weights":[-4.9921125E-3,4.802469E-1,-8.1767374E-1,7.446856E-1,2.0199113E-1,-3.95978E-1,-1.2648758E0,8.30383E-3,5.3014737E-3,1.3629285E-3,5.489097E-3,-4.7713323E-3,1.5175771E-3,-1.028703E-2,-1.4342488E-2],"categories":[],"categories_nodes":[],"categories_segments":[],"categories_sizes":[],"default_left":[0,0,0,0,0,0,0,0,0,0,0,0,0,0,0],"id":54,"left_children":[1,3,5,7,9,11,13,-1,-1,-1,-1,-1,-1,-1,-1],"loss_changes":[2.776267E2,3.2211044E1,4.888391E1,3.4849396E0,4.830431E0,6.227247E0,2.8692017E0,0E0,0E0,0E0,0E0,0E0,0E0,0E0,0E0],"parents":[2147483647,0,0,1,1,2,2,3,3,4,4,5,5,6,6],"right_children":[2,4,6,8,10,12,14,-1,-1,-1,-1,-1,-1,-1,-1],"split_conditions":[5.93E2,5.1E2,6.34E2,4.69E2,1.9693654E-2,2.1E1,6.51E2,8.30383E-3,5.3014737E-3,1.3629285E-3,5.489097E-3,-4.7713323E-3,1.5175771E-3,-1.028703E-2,-1.4342488E-2],"split_indices":[0,0,0,0,10,4,0,0,0,0,0,0,0,0,0],"split_type":[0,0,0,0,0,0,0,0,0,0,0,0,0,0,0],"sum_hessian":[7.010265E2,4.3932578E2,2.617007E2,2.2396634E2,2.1535945E2,1.3614705E2,1.25553665E2,1.5696194E2,6.7004395E1,1.8282582E2,3.253363E1,1.1874635E2,1.7400692E1,5.6867836E1,6.868583E1],"tree_param":{"num_deleted":"0","num_feature":"12","num_nodes":"15","size_leaf_vector":"1"}},{"base_weights":[7.2779427E-3,1.8974513E-1,-2.3056267E-1,-7.788023E-2,5.217128E-1,-8.10113E-1,-9.5445536E-2,1.6932132E-3,-5.280143E-3,8.660834E-3,4.4215675E-3,-2.6243445E-3,-9.26612E-3,4.5630066E-3,-2.07901E-3],"categories":[],"categories_nodes":[],"categories_segments":[],"categories_sizes":[],"default_left":[0,0,0,0,0,0,0,0,0,0,0,0,0,0,0],"id":55,"left_children":[1,3,5,7,9,11,13,-1,-1,-1,-1,-1,-1,-1,-1],"loss_changes":[3.0881989E1,3.583274E1,2.407662E1,2.5084953E1,4.3545723E0,3.349247E0,1.5792702E1,0E0,0E0,0E0,0E0,0E0,0E0,0E0,0E0],"parents":[2147483647,0,0,1,1,2,2,3,3,4,4,5,5,6,6],"right_children":[2,4,6,8,10,12,14,-1,-1,-1,-1,-1,-1,-1,-1],"split_conditions":[9E0,1.2987013E-2,1.5564202E-2,7E0,6E0,1E0,1E1,1.6932132E-3,-5.280143E-3,8.660834E-3,4.4215675E-3,-2.6243445E-3,-9.26612E-3,4.5630066E-3,-2.07901E-3],"split_indices":[2,10,10,2,2,6,1,0,0,0,0,0,0,0,0],"split_type":[0,0,0,0,0,0,0,0,0,0,0,0,0,0,0],"sum_hessian":[7.085856E2,4.0114072E2,3.0744485E2,2.227292E2,1.784115E2,5.670969E1,2.5073515E2,1.44377E2,7.83522E1,3.0698515E1,1.4771298E2,1.0802872E1,4.590682E1,4.1675255E1,2.0905989E2],"tree_param":{"num_deleted":"0","num_feature":"12","num_nodes":"15","size_leaf_vector":"1"}},{"base_weights":[3.96287E-3,-1.0024542E-1,4.7683835E-1,1.2506905E-1,-4.8541763E-1,8.8148975E-1,-2.8117788E-1,-1.1865397E-3,4.789316E-3,-9.13532E-3,-3.4321018E-3,1.1943713E-2,6.0059363E-3,-6.616759E-3,1.3738368E-3],"categories":[],"categories_nodes":[],"categories_segments":[],"categories_sizes":[],"default_left":[0,0,0,0,0,0,0,0,0,0,0,0,0,0,0],"id":56,"left_children":[1,3,5,7,9,11,13,-1,-1,-1,-1,-1,-1,-1,-1],"loss_changes":[3.4696754E1,5.0166794E1,3.9370956E1,3.1585464E1,1.25135765E1,6.2411346E0,7.364941E0,0E0,0E0,0E0,0E0,0E0,0E0,0E0,0E0],"parents":[2147483647,0,0,1,1,2,2,3,3,4,4,5,5,6,6],"right_children":[2,4,6,8,10,12,14,-1,-1,-1,-1,-1,-1,-1,-1],"split_conditions":[2E-2,9E0,1.3E1,1.2924071E-2,1.5384615E-2,1.5E1,2.3339318E-2,-1.1865397E-3,4.789316E-3,-9.13532E-3,-3.4321018E-3,1.1943713E-2,6.0059363E-3,-6.616759E-3,1.3738368E-3],"split_indices":[10,2,1,10,10,4,10,0,0,0,0,0,0,0,0],"split_type":[0,0,0,0,0,0,0,0,0,0,0,0,0,0,0],"sum_hessian":[7.011538E2,5.755098E2,1.2564397E2,3.6374347E2,2.1176636E2,8.175591E1,4.3888058E1,2.1598247E2,1.47761E2,5.0774437E1,1.6099191E2,3.636834E1,4.5387573E1,2.2532965E1,2.1355093E1],"tree_param":{"num_deleted":"0","num_feature":"12","num_nodes":"15","size_leaf_vector":"1"}},{"base_weights":[3.2929934E-4,4.5432723E-1,-8.23678E-1,5.950326E-1,9.63253E-2,-5.1710474E-1,-1.3063474E0,1.242945E-2,5.5871084E-3,-3.4289355E-3,1.3480061E-3,-4.20725E-3,-7.766411E-3,-9.819376E-3,-1.434055E-2],"categories":[],"categories_nodes":[],"categories_segments":[],"categories_sizes":[],"default_left":[0,0,0,0,0,0,0,0,0,0,0,0,0,0,0],"id":57,"left_children":[1,3,5,7,9,11,13,-1,-1,-1,-1,-1,-1,-1,-1],"loss_changes":[2.6495074E2,2.2916466E1,3.6216095E1,6.6658707E0,2.276816E0,3.4207687E0,1.8959503E0,0E0,0E0,0E0,0E0,0E0,0E0,0E0,0E0],"parents":[2147483647,0,0,1,1,2,2,3,3,4,4,5,5,6,6],"right_children":[2,4,6,8,10,12,14,-1,-1,-1,-1,-1,-1,-1,-1],"split_conditions":[5.97E2,5.55E2,6.41E2,2.31E2,5.58E2,6.3E2,6.51E2,1.242945E-2,5.5871084E-3,-3.4289355E-3,1.3480061E-3,-4.20725E-3,-7.766411E-3,-9.819376E-3,-1.434055E-2],"split_indices":[0,0,0,0,0,0,0,0,0,0,0,0,0,0,0],"split_type":[0,0,0,0,0,0,0,0,0,0,0,0,0,0,0],"sum_hessian":[7.0523914E2,4.5514423E2,2.500949E2,3.2601685E2,1.2912738E2,1.548482E2,9.524669E1,1.4660981E1,3.1135587E2,9.444511E0,1.1968288E2,1.15783295E2,3.9064915E1,3.05854E1,6.4661285E1],"tree_param":{"num_deleted":"0","num_feature":"12","num_nodes":"15","size_leaf_vector":"1"}},{"base_weights":[-4.575366E-3,4.1181347E-1,-9.1354346E-1,5.6678224E-1,9.6072565E-4,-6.046862E-1,-1.3212348E-2,7.4747894E-3,4.4334317E-3,-1.3293754E-3,1.15795E-3,-6.843829E-3,-2.07604E-3],"categories":[],"categories_nodes":[],"categories_segments":[],"categories_sizes":[],"default_left":[0,0,0,0,0,0,0,0,0,0,0,0,0],"id":58,"left_children":[1,3,5,7,9,11,-1,-1,-1,-1,-1,-1,-1],"loss_changes":[2.6321594E2,3.0367523E1,2.6313156E1,7.2278976E0,2.0548325E0,3.8083916E0,0E0,0E0,0E0,0E0,0E0,0E0,0E0],"parents":[2147483647,0,0,1,1,2,2,3,3,4,4,5,5],"right_children":[2,4,6,8,10,12,-1,-1,-1,-1,-1,-1,-1],"split_conditions":[6.05E2,5.64E2,6.41E2,4.53E2,4.3333335E0,9E0,-1.3212348E-2,7.4747894E-3,4.4334317E-3,-1.3293754E-3,1.15795E-3,-6.843829E-3,-2.07604E-3],"split_indices":[0,0,0,0,5,3,0,0,0,0,0,0,0],"split_type":[0,0,0,0,0,0,0,0,0,0,0,0,0],"sum_hessian":[6.924567E2,4.754695E2,2.1698721E2,3.4483322E2,1.306363E2,1.2557748E2,9.140974E1,1.3687909E2,2.0795412E2,6.0202694E1,7.043361E1,1.03682495E2,2.1894978E1],"tree_param":{"num_deleted":"0","num_feature":"12","num_nodes":"13","size_leaf_vector":"1"}},{"base_weights":[1.2375272E-2,4.0168768E-1,-9.699614E-1,6.313723E-1,4.8768442E-2,-5.598548E-1,-1.2624096E0,7.262523E-3,4.579839E-3,2.1729772E-3,-1.3188728E-4,-2.8967338E-3,-7.0476364E-3,-1.0110395E-2,-1.40823815E-2],"categories":[],"categories_nodes":[],"categories_segments":[],"categories_sizes":[],"default_left":[0,0,0,0,0,0,0,0,0,0,0,0,0,0,0],"id":59,"left_children":[1,3,5,7,9,11,13,-1,-1,-1,-1,-1,-1,-1,-1],"loss_changes":[2.7143503E2,4.1154366E1,2.3101166E1,4.564171E0,2.1135597E0,3.0824718E0,2.1312103E0,0E0,0E0,0E0,0E0,0E0,0E0,0E0,0E0],"parents":[2147483647,0,0,1,1,2,2,3,3,4,4,5,5,6,6],"right_children":[2,4,6,8,10,12,14,-1,-1,-1,-1,-1,-1,-1,-1],"split_conditions":[6.12E2,5.47E2,6.35E2,4.93E2,5.67E2,5E-1,6.49E2,7.262523E-3,4.579839E-3,2.1729772E-3,-1.3188728E-4,-2.8967338E-3,-7.0476364E-3,-1.0110395E-2,-1.40823815E-2],"split_indices":[0,0,0,0,0,11,0,0,0,0,0,0,0,0,0],"split_type":[0,0,0,0,0,0,0,0,0,0,0,0,0,0,0],"sum_hessian":[7.067249E2,5.067716E2,1.9995334E2,3.0626605E2,2.0050557E2,8.505308E1,1.1490025E2,1.9485583E2,1.1141021E2,5.288704E1,1.4761853E2,3.126264E1,5.3790436E1,4.6553627E1,6.834663E1],"tree_param":{"num_deleted":"0","num_feature":"12","num_nodes":"15","size_leaf_vector":"1"}},{"base_weights":[6.435214E-3,1.6814794E-1,-2.5710818E-1,2.7706798E-3,5.6979686E-1,-3.916975E-1,2.567104E-1,1.3987417E-3,-3.7830293E-3,7.3626456E-3,1.2444209E-3,-2.710378E-3,-8.3972225E-3,6.4430702E-3,-2.9315874E-3],"categories":[],"categories_nodes":[],"categories_segments":[],"categories_sizes":[],"default_left":[0,0,0,0,0,0,0,0,0,0,0,0,0,0,0],"id":60,"left_children":[1,3,5,7,9,11,13,-1,-1,-1,-1,-1,-1,-1,-1],"loss_changes":[3.0292847E1,2.9254787E1,1.8843914E1,1.6458988E1,9.386002E0,1.1270115E1,1.2434549E1,0E0,0E0,0E0,0E0,0E0,0E0,0E0,0E0],"parents":[2147483647,0,0,1,1,2,2,3,3,4,4,5,5,6,6],"right_children":[2,4,6,8,10,12,14,-1,-1,-1,-1,-1,-1,-1,-1],"split_conditions":[1.5E1,1.5625E-2,2.166065E-2,8E0,1E1,1.2E1,1.4E1,1.3987417E-3,-3.7830293E-3,7.3626456E-3,1.2444209E-3,-2.710378E-3,-8.3972225E-3,6.4430702E-3,-2.9315874E-3],"split_indices":[4,10,10,1,1,1,1,0,0,0,0,0,0,0,0],"split_type":[0,0,0,0,0,0,0,0,0,0,0,0,0,0,0],"sum_hessian":[7.0777234E2,4.3896326E2,2.6880905E2,3.1200632E2,1.2695695E2,2.1329517E2,5.5513893E1,2.3015137E2,8.185494E1,9.1700645E1,3.52563E1,1.6993626E2,4.3358906E1,3.241049E1,2.3103409E1],"tree_param":{"num_deleted":"0","num_feature":"12","num_nodes":"15","size_leaf_vector":"1"}},{"base_weights":[-1.7266892E-2,4.2178118E-1,-8.069034E-1,7.370768E-1,2.0907703E-1,-4.763633E-1,-1.2786465E0,8.23102E-3,3.8896145E-3,3.84438E-3,6.8322837E-4,-2.946196E-3,-6.4606303E-3,-1.0249041E-2,-1.4064072E-2],"categories":[],"categories_nodes":[],"categories_segments":[],"categories_sizes":[],"default_left":[0,0,0,0,0,0,0,0,0,0,0,0,0,0,0],"id":61,"left_children":[1,3,5,7,9,11,13,-1,-1,-1,-1,-1,-1,-1,-1],"loss_changes":[2.4343492E2,3.0035309E1,3.820877E1,4.94648E0,6.664193E0,4.3382454E0,1.1600189E0,0E0,0E0,0E0,0E0,0E0,0E0,0E0,0E0],"parents":[2147483647,0,0,1,1,2,2,3,3,4,4,5,5,6,6],"right_children":[2,4,6,8,10,12,14,-1,-1,-1,-1,-1,-1,-1,-1],"split_conditions":[5.97E2,4.87E2,6.39E2,1.25E0,5.47E2,6.18E2,6.51E2,8.23102E-3,3.8896145E-3,3.84438E-3,6.8322837E-4,-2.946196E-3,-6.4606303E-3,-1.0249041E-2,-1.4064072E-2],"split_indices":[0,0,0,7,0,0,0,0,0,0,0,0,0,0,0],"split_type":[0,0,0,0,0,0,0,0,0,0,0,0,0,0,0],"sum_hessian":[6.991996E2,4.4980246E2,2.4939716E2,1.7971272E2,2.7008972E2,1.4841833E2,1.0097882E2,1.4246143E2,3.72513E1,1.1910449E2,1.5098523E2,7.364778E1,7.477055E1,3.834866E1,6.2630165E1],"tree_param":{"num_deleted":"0","num_feature":"12","num_nodes":"15","size_leaf_vector":"1"}},{"base_weights":[8.196582E-3,4.188084E-1,-8.728347E-1,6.171E-1,6.9734976E-2,-4.7996962E-1,-1.2921766E0,7.2430656E-3,4.627578E-3,-2.8097985E-4,2.4861768E-3,-2.8548974E-3,-5.9400788E-3,-1.0501734E-2,-1.403011E-2],"categories":[],"categories_nodes":[],"categories_segments":[],"categories_sizes":[],"default_left":[0,0,0,0,0,0,0,0,0,0,0,0,0,0,0],"id":62,"left_children":[1,3,5,7,9,11,13,-1,-1,-1,-1,-1,-1,-1,-1],"loss_changes":[2.54372E2,3.3132393E1,3.589583E1,4.5549164E0,3.0806637E0,2.3581467E0,6.6622925E-1,0E0,0E0,0E0,0E0,0E0,0E0,0E0,0E0],"parents":[2147483647,0,0,1,1,2,2,3,3,4,4,5,5,6,6],"right_children":[2,4,6,8,10,12,14,-1,-1,-1,-1,-1,-1,-1,-1],"split_conditions":[6.05E2,5.47E2,6.39E2,4.5E0,5.5E0,3.3333334E-1,6.51E2,7.2430656E-3,4.627578E-3,-2.8097985E-4,2.4861768E-3,-2.8548974E-3,-5.9400788E-3,-1.0501734E-2,-1.403011E-2],"split_indices":[0,0,0,5,5,11,0,0,0,0,0,0,0,0,0],"split_type":[0,0,0,0,0,0,0,0,0,0,0,0,0,0,0],"sum_hessian":[7.0013196E2,4.7809763E2,2.2203435E2,3.0416473E2,1.7393289E2,1.1629704E2,1.057373E2,1.7622142E2,1.27943306E2,1.13256195E2,6.0676697E1,4.4929638E1,7.13674E1,3.815028E1,6.758702E1],"tree_param":{"num_deleted":"0","num_feature":"12","num_nodes":"15","size_leaf_vector":"1"}},{"base_weights":[-8.001661E-3,4.1529387E-1,-7.77415E-1,5.9531647E-1,5.8025472E-2,-4.2124936E-1,-1.2460451E0,7.7223806E-3,4.7504613E-3,1.04498125E-4,6.3086855E-3,-2.256959E-3,-5.315063E-3,-9.9646235E-3,-1.3994269E-2],"categories":[],"categories_nodes":[],"categories_segments":[],"categories_sizes":[],"default_left":[0,0,0,0,0,0,0,0,0,0,0,0,0,0,0],"id":63,"left_children":[1,3,5,7,9,11,13,-1,-1,-1,-1,-1,-1,-1,-1],"loss_changes":[2.2728305E2,2.8903496E1,4.0550278E1,5.8161545E0,4.146381E0,2.9029427E0,1.973053E0,0E0,0E0,0E0,0E0,0E0,0E0,0E0,0E0],"parents":[2147483647,0,0,1,1,2,2,3,3,4,4,5,5,6,6],"right_children":[2,4,6,8,10,12,14,-1,-1,-1,-1,-1,-1,-1,-1],"split_conditions":[5.97E2,5.47E2,6.39E2,4.36E2,1.3E1,3.3333334E-1,6.52E2,7.7223806E-3,4.7504613E-3,1.04498125E-4,6.3086855E-3,-2.256959E-3,-5.315063E-3,-9.9646235E-3,-1.3994269E-2],"split_indices":[0,0,0,0,1,11,0,0,0,0,0,0,0,0,0],"split_type":[0,0,0,0,0,0,0,0,0,0,0,0,0,0,0],"sum_hessian":[6.948656E2,4.4870132E2,2.4616428E2,2.9769666E2,1.5100467E2,1.4148329E2,1.04680984E2,1.17183914E2,1.8051274E2,1.408354E2,1.0169272E1,5.2658268E1,8.882503E1,4.4125263E1,6.055572E1],"tree_param":{"num_deleted":"0","num_feature":"12","num_nodes":"15","size_leaf_vector":"1"}},{"base_weights":[2.0583454E-3,4.7096422E-1,-7.664526E-1,6.129555E-1,1.3978966E-1,-4.020974E-1,-1.2073908E0,7.000679E-3,4.539367E-3,-1.692951E-4,2.8816208E-3,-2.1234795E-3,-5.2366126E-3,-9.334662E-3,-1.3429855E-2],"categories":[],"categories_nodes":[],"categories_segments":[],"categories_sizes":[],"default_left":[0,0,0,0,0,0,0,0,0,0,0,0,0,0,0],"id":64,"left_children":[1,3,5,7,9,11,13,-1,-1,-1,-1,-1,-1,-1,-1],"loss_changes":[2.5161641E2,2.02631E1,4.1780487E1,3.7215958E0,3.0784168E0,3.226904E0,2.538269E0,0E0,0E0,0E0,0E0,0E0,0E0,0E0,0E0],"parents":[2147483647,0,0,1,1,2,2,3,3,4,4,5,5,6,6],"right_children":[2,4,6,8,10,12,14,-1,-1,-1,-1,-1,-1,-1,-1],"split_conditions":[5.91E2,5.47E2,6.34E2,4.93E2,4.3333335E0,6.1E2,6.46E2,7.000679E-3,4.539367E-3,-1.692951E-4,2.8816208E-3,-2.1234795E-3,-5.2366126E-3,-9.334662E-3,-1.3429855E-2],"split_indices":[0,0,0,0,5,0,0,0,0,0,0,0,0,0,0],"split_type":[0,0,0,0,0,0,0,0,0,0,0,0,0,0,0],"sum_hessian":[6.9523505E2,4.3214386E2,2.6309122E2,3.0156952E2,1.3057436E2,1.4562582E2,1.17465385E2,1.9153864E2,1.10030876E2,6.414729E1,6.642707E1,5.8473896E1,8.715193E1,4.2809402E1,7.465598E1],"tree_param":{"num_deleted":"0","num_feature":"12","num_nodes":"15","size_leaf_vector":"1"}},{"base_weights":[-2.454382E-2,3.3670673E-1,-9.1843337E-1,5.712774E-1,-3.8535965E-3,-6.7108333E-1,-1.3664988E-2,7.6412805E-3,4.0191365E-3,2.0604802E-3,-1.262529E-3,-5.131679E-3,-8.2142055E-3],"categories":[],"categories_nodes":[],"categories_segments":[],"categories_sizes":[],"default_left":[0,0,0,0,0,0,0,0,0,0,0,0,0],"id":65,"left_children":[1,3,5,7,9,11,-1,-1,-1,-1,-1,-1,-1],"loss_changes":[2.2706854E2,4.0015152E1,2.1053467E1,9.226677E0,5.3256483E0,2.5332909E0,0E0,0E0,0E0,0E0,0E0,0E0,0E0],"parents":[2147483647,0,0,1,1,2,2,3,3,4,4,5,5],"right_children":[2,4,6,8,10,12,-1,-1,-1,-1,-1,-1,-1],"split_conditions":[6.12E2,5.47E2,6.49E2,4.56E2,5.73E2,6.3E2,-1.3664988E-2,7.6412805E-3,4.0191365E-3,2.0604802E-3,-1.262529E-3,-5.131679E-3,-8.2142055E-3],"split_indices":[0,0,0,0,0,0,0,0,0,0,0,0,0],"split_type":[0,0,0,0,0,0,0,0,0,0,0,0,0],"sum_hessian":[7.002404E2,4.9936526E2,2.0087515E2,2.950944E2,2.0427086E2,1.3184052E2,6.903464E1,1.3551677E2,1.5957762E2,7.486329E1,1.2940758E2,6.752836E1,6.431216E1],"tree_param":{"num_deleted":"0","num_feature":"12","num_nodes":"13","size_leaf_vector":"1"}},{"base_weights":[-2.6966702E-2,3.5847503E-1,-8.539599E-1,5.5531263E-1,-6.2489573E-2,-5.454535E-1,-1.2676169E0,8.031585E-3,4.381188E-3,1.7723794E-3,-1.1695641E-3,-8.616945E-3,-4.8991684E-3,-9.845888E-3,-1.3719059E-2],"categories":[],"categories_nodes":[],"categories_segments":[],"categories_sizes":[],"default_left":[0,0,0,0,0,0,0,0,0,0,0,0,0,0,0],"id":66,"left_children":[1,3,5,7,9,11,13,-1,-1,-1,-1,-1,-1,-1,-1],"loss_changes":[2.2583922E2,4.010202E1,2.7704788E1,9.042595E0,2.059445E0,1.6787643E0,7.803345E-1,0E0,0E0,0E0,0E0,0E0,0E0,0E0,0E0],"parents":[2147483647,0,0,1,1,2,2,3,3,4,4,5,5,6,6],"right_children":[2,4,6,8,10,12,14,-1,-1,-1,-1,-1,-1,-1,-1],"split_conditions":[6.05E2,5.55E2,6.41E2,4.19E2,3E0,9E0,6.51E2,8.031585E-3,4.381188E-3,1.7723794E-3,-1.1695641E-3,-8.616945E-3,-4.8991684E-3,-9.845888E-3,-1.3719059E-2],"split_indices":[0,0,0,0,5,4,0,0,0,0,0,0,0,0,0],"split_type":[0,0,0,0,0,0,0,0,0,0,0,0,0,0,0],"sum_hessian":[7.0555756E2,4.818354E2,2.2372214E2,3.279919E2,1.5384348E2,1.3014075E2,9.358139E1,1.0248111E2,2.255108E2,2.7856457E1,1.2598702E2,1.6188017E1,1.1395273E2,2.9414742E1,6.416666E1],"tree_param":{"num_deleted":"0","num_feature":"12","num_nodes":"15","size_leaf_vector":"1"}},{"base_weights":[1.1097741E-2,4.0840936E-1,-7.855436E-1,5.650148E-1,5.3402107E-2,-4.1189963E-1,-1.238866E0,4.8522395E-3,7.838787E-3,1.9806295E-3,-4.842612E-4,-6.9948616E-3,-3.307807E-3,-9.934993E-3,-1.3720969E-2],"categories":[],"categories_nodes":[],"categories_segments":[],"categories_sizes":[],"default_left":[0,0,0,0,0,0,0,0,0,0,0,0,0,0,0],"id":67,"left_children":[1,3,5,7,9,11,13,-1,-1,-1,-1,-1,-1,-1,-1],"loss_changes":[2.2215744E2,2.598993E1,3.879756E1,5.1013947E0,2.1503398E0,2.6923542E0,1.3807831E0,0E0,0E0,0E0,0E0,0E0,0E0,0E0,0E0],"parents":[2147483647,0,0,1,1,2,2,3,3,4,4,5,5,6,6],"right_children":[2,4,6,8,10,12,14,-1,-1,-1,-1,-1,-1,-1,-1],"split_conditions":[6.01E2,5.55E2,6.39E2,1.9693654E-2,3.3333334E-1,1.1061947E-2,6.51E2,4.8522395E-3,7.838787E-3,1.9806295E-3,-4.842612E-4,-6.9948616E-3,-3.307807E-3,-9.934993E-3,-1.3720969E-2],"split_indices":[0,0,0,10,11,10,0,0,0,0,0,0,0,0,0],"split_type":[0,0,0,0,0,0,0,0,0,0,0,0,0,0,0],"sum_hessian":[6.988659E2,4.667921E2,2.3207378E2,3.2329062E2,1.4350148E2,1.2878647E2,1.0328732E2,2.4045424E2,8.283638E1,5.8696922E1,8.4804565E1,2.5818626E1,1.02967834E2,4.081157E1,6.247575E1],"tree_param":{"num_deleted":"0","num_feature":"12","num_nodes":"15","size_leaf_vector":"1"}},{"base_weights":[9.260248E-3,4.6774152E-1,-8.200198E-2,6.3199383E-1,3.0515075E-1,2.16002E-2,-2.5076085E-1,7.2031906E-3,4.1555446E-3,-4.5884572E-4,3.5947848E-3,5.80646E-4,-1.5832506E-3,-4.206069E-3,-1.6361999E-3],"categories":[],"categories_nodes":[],"categories_segments":[],"categories_sizes":[],"default_left":[0,0,0,0,0,0,0,0,0,0,0,0,0,0,0],"id":68,"left_children":[1,3,5,7,9,11,13,-1,-1,-1,-1,-1,-1,-1,-1],"loss_changes":[2.9151554E1,2.7993832E0,1.0169275E1,6.2409973E-1,1.1884847E0,2.3854504E0,3.170495E0,0E0,0E0,0E0,0E0,0E0,0E0,0E0,0E0],"parents":[2147483647,0,0,1,1,2,2,3,3,4,4,5,5,6,6],"right_children":[2,4,6,8,10,12,14,-1,-1,-1,-1,-1,-1,-1,-1],"split_conditions":[6E0,5E0,1E1,7E0,3E0,1.6E1,6.666667E-1,7.2031906E-3,4.1555446E-3,-4.5884572E-4,3.5947848E-3,5.80646E-4,-1.5832506E-3,-4.206069E-3,-1.6361999E-3],"split_indices":[2,1,2,4,3,4,7,0,0,0,0,0,0,0,0],"split_type":[0,0,0,0,0,0,0,0,0,0,0,0,0,0,0],"sum_hessian":[6.938302E2,1.1415463E2,5.7967554E2,5.4632896E1,5.9521736E1,3.5998587E2,2.1968967E2,3.6319473E1,1.8313423E1,8.008489E0,5.1513245E1,3.0016843E2,5.9817455E1,7.2547455E1,1.4714221E2],"tree_param":{"num_deleted":"0","num_feature":"12","num_nodes":"15","size_leaf_vector":"1"}},{"base_weights":[-2.3509765E-2,3.1629592E-1,-8.6519325E-1,6.234307E-1,1.364868E-1,-5.111202E-1,-1.2096766E0,7.5520095E-3,4.9239113E-3,2.3466134E-3,-1.7495863E-3,-5.686373E-3,-7.158957E-4,-9.210263E-3,-1.3651065E-2],"categories":[],"categories_nodes":[],"categories_segments":[],"categories_sizes":[],"default_left":[0,0,0,0,0,0,0,0,0,0,0,0,0,0,0],"id":69,"left_children":[1,3,5,7,9,11,13,-1,-1,-1,-1,-1,-1,-1,-1],"loss_changes":[1.99174E2,2.7274189E1,2.3500732E1,2.5986328E0,9.689372E0,2.501398E0,2.6191864E0,0E0,0E0,0E0,0E0,0E0,0E0,0E0,0E0],"parents":[2147483647,0,0,1,1,2,2,3,3,4,4,5,5,6,6],"right_children":[2,4,6,8,10,12,14,-1,-1,-1,-1,-1,-1,-1,-1],"split_conditions":[6.11E2,4.87E2,6.39E2,4E0,5.89E2,3E0,6.51E2,7.5520095E-3,4.9239113E-3,2.3466134E-3,-1.7495863E-3,-5.686373E-3,-7.158957E-4,-9.210263E-3,-1.3651065E-2],"split_indices":[0,0,0,5,0,6,0,0,0,0,0,0,0,0,0],"split_type":[0,0,0,0,0,0,0,0,0,0,0,0,0,0,0],"sum_hessian":[6.934559E2,4.9467947E2,1.9877641E2,1.8129901E2,3.1338046E2,9.986106E1,9.891535E1,8.6835045E1,9.446396E1,2.3855305E2,7.4827415E1,8.791578E1,1.1945281E1,3.8256783E1,6.0658566E1],"tree_param":{"num_deleted":"0","num_feature":"12","num_nodes":"15","size_leaf_vector":"1"}},{"base_weights":[-1.2728338E-3,5.061861E-1,-6.347764E-1,6.991531E-1,2.9463837E-1,-3.2284638E-1,-1.1650274E0,6.0193855E-3,1.1023829E-2,7.8048366E-3,2.6356508E-3,-3.5950565E-3,5.2216873E-3,-9.186557E-3,-1.3654322E-2],"categories":[],"categories_nodes":[],"categories_segments":[],"categories_sizes":[],"default_left":[0,0,0,0,0,0,0,0,0,0,0,0,0,0,0],"id":70,"left_children":[1,3,5,7,9,11,13,-1,-1,-1,-1,-1,-1,-1,-1],"loss_changes":[2.260086E2,1.5625786E1,5.1153778E1,6.964096E0,2.5417576E0,6.444418E0,3.808197E0,0E0,0E0,0E0,0E0,0E0,0E0,0E0,0E0],"parents":[2147483647,0,0,1,1,2,2,3,3,4,4,5,5,6,6],"right_children":[2,4,6,8,10,12,14,-1,-1,-1,-1,-1,-1,-1,-1],"split_conditions":[5.79E2,4.99E2,6.34E2,2.1881837E-2,8.833922E-3,2.2675738E-2,6.52E2,6.0193855E-3,1.1023829E-2,7.8048366E-3,2.6356508E-3,-3.5950565E-3,5.2216873E-3,-9.186557E-3,-1.3654322E-2],"split_indices":[0,0,0,10,10,10,0,0,0,0,0,0,0,0,0],"split_type":[0,0,0,0,0,0,0,0,0,0,0,0,0,0,0],"sum_hessian":[7.0003253E2,3.888507E2,3.1118182E2,2.0154787E2,1.8730286E2,1.9744463E2,1.137372E2,1.6540869E2,3.6139164E1,9.084593E0,1.7821826E2,1.9006105E2,7.38358E0,5.4774754E1,5.896244E1],"tree_param":{"num_deleted":"0","num_feature":"12","num_nodes":"15","size_leaf_vector":"1"}},{"base_weights":[1.8142432E-2,3.4523386E-1,-1.111582E-1,-1.0639293E-1,6.947028E-1,-2.3557395E-1,2.8317332E-1,1.4713753E-3,-7.56827E-3,3.2717937E-3,7.355024E-3,-1.4075221E-3,-7.2179055E-3,6.747513E-3,-3.3372145E-3],"categories":[],"categories_nodes":[],"categories_segments":[],"categories_sizes":[],"default_left":[0,0,0,0,0,0,0,0,0,0,0,0,0,0,0],"id":71,"left_children":[1,3,5,7,9,11,13,-1,-1,-1,-1,-1,-1,-1,-1],"loss_changes":[2.9281052E1,3.1065296E1,2.4451473E1,1.4490411E1,1.2999725E0,1.7280605E1,2.9258827E1,0E0,0E0,0E0,0E0,0E0,0E0,0E0,0E0],"parents":[2147483647,0,0,1,1,2,2,3,3,4,4,5,5,6,6],"right_children":[2,4,6,8,10,12,14,-1,-1,-1,-1,-1,-1,-1,-1],"split_conditions":[7E0,1.0204081E-2,1.9639935E-2,6E0,1.0657194E-2,1.1E1,1.3E1,1.4713753E-3,-7.56827E-3,3.2717937E-3,7.355024E-3,-1.4075221E-3,-7.2179055E-3,6.747513E-3,-3.3372145E-3],"split_indices":[1,10,10,1,10,1,1,0,0,0,0,0,0,0,0],"split_type":[0,0,0,0,0,0,0,0,0,0,0,0,0,0,0],"sum_hessian":[6.8947485E2,1.9462572E2,4.9484912E2,8.5358406E1,1.0926731E2,3.7662415E2,1.1822498E2,6.22535E1,2.31049E1,1.2269791E1,9.699752E1,3.1678006E2,5.9844074E1,7.223357E1,4.5991413E1],"tree_param":{"num_deleted":"0","num_feature":"12","num_nodes":"15","size_leaf_vector":"1"}},{"base_weights":[3.0238247E-2,4.2459735E-1,-8.116565E-1,5.878335E-1,1.4146358E-1,-4.5067498E-1,-1.2219332E0,5.454924E-3,1.1764043E-2,2.3651964E-3,-1.0668887E-3,-5.060388E-3,-5.4722384E-4,-9.464215E-3,-1.3367539E-2],"categories":[],"categories_nodes":[],"categories_segments":[],"categories_sizes":[],"default_left":[0,0,0,0,0,0,0,0,0,0,0,0,0,0,0],"id":72,"left_children":[1,3,5,7,9,11,13,-1,-1,-1,-1,-1,-1,-1,-1],"loss_changes":[2.3060507E2,2.1733147E1,3.1991165E1,6.501381E0,4.164068E0,2.5945206E0,1.3554077E0,0E0,0E0,0E0,0E0,0E0,0E0,0E0,0E0],"parents":[2147483647,0,0,1,1,2,2,3,3,4,4,5,5,6,6],"right_children":[2,4,6,8,10,12,14,-1,-1,-1,-1,-1,-1,-1,-1],"split_conditions":[6.05E2,5.47E2,6.39E2,2.6845638E-2,5.89E2,2.1E1,6.49E2,5.454924E-3,1.1764043E-2,2.3651964E-3,-1.0668887E-3,-5.060388E-3,-5.4722384E-4,-9.464215E-3,-1.3367539E-2],"split_indices":[0,0,0,10,0,4,0,0,0,0,0,0,0,0,0],"split_type":[0,0,0,0,0,0,0,0,0,0,0,0,0,0,0],"sum_hessian":[6.9151807E2,4.714334E2,2.2008464E2,2.9800766E2,1.7342574E2,1.1875016E2,1.0133448E2,2.807043E2,1.7303333E1,1.2544407E2,4.7981674E1,1.0381697E2,1.49331875E1,3.388689E1,6.7447586E1],"tree_param":{"num_deleted":"0","num_feature":"12","num_nodes":"15","size_leaf_vector":"1"}},{"base_weights":[-1.4436E-2,3.1786597E-1,-8.612291E-1,6.134005E-1,6.490118E-2,-5.207758E-1,-1.2397156E0,6.605048E-3,3.881493E-4,1.9911332E-3,-1.2049017E-3,-3.3785992E-3,-6.381071E-3,-8.376299E-3,-1.314403E-2],"categories":[],"categories_nodes":[],"categories_segments":[],"categories_sizes":[],"default_left":[0,0,0,0,0,0,0,0,0,0,0,0,0,0,0],"id":73,"left_children":[1,3,5,7,9,11,13,-1,-1,-1,-1,-1,-1,-1,-1],"loss_changes":[1.9388109E2,3.6937057E1,2.4052399E1,6.13398E0,6.712237E0,1.9260273E0,1.0772705E0,0E0,0E0,0E0,0E0,0E0,0E0,0E0,0E0],"parents":[2147483647,0,0,1,1,2,2,3,3,4,4,5,5,6,6],"right_children":[2,4,6,8,10,12,14,-1,-1,-1,-1,-1,-1,-1,-1],"split_conditions":[6.11E2,5.11E2,6.41E2,1.9E1,5.76E2,3.3333334E-1,6.46E2,6.605048E-3,3.881493E-4,1.9911332E-3,-1.2049017E-3,-3.3785992E-3,-6.381071E-3,-8.376299E-3,-1.314403E-2],"split_indices":[0,0,0,4,0,11,0,0,0,0,0,0,0,0,0],"split_type":[0,0,0,0,0,0,0,0,0,0,0,0,0,0,0],"sum_hessian":[6.860502E2,4.9337494E2,1.9267525E2,2.2655603E2,2.668189E2,1.0331029E2,8.936497E1,2.09183E2,1.737304E1,1.5470837E2,1.12110535E2,4.2645924E1,6.0664364E1,1.6869495E1,7.249547E1],"tree_param":{"num_deleted":"0","num_feature":"12","num_nodes":"15","size_leaf_vector":"1"}},{"base_weights":[7.941682E-3,3.9500993E-1,-7.203194E-1,6.41363E-1,1.716321E-1,-3.3513036E-1,-1.0515039E0,9.771053E-3,5.522181E-3,-1.8700135E-3,2.3177587E-3,-3.9495826E-3,9.654442E-4,-7.883428E-3,-1.3347797E-2],"categories":[],"categories_nodes":[],"categories_segments":[],"categories_sizes":[],"default_left":[0,0,0,0,0,0,0,0,0,0,0,0,0,0,0],"id":74,"left_children":[1,3,5,7,9,11,13,-1,-1,-1,-1,-1,-1,-1,-1],"loss_changes":[1.97205E2,2.4971481E1,3.0444328E1,5.67556E0,5.2764316E0,3.01293E0,8.101334E0,0E0,0E0,0E0,0E0,0E0,0E0,0E0,0E0],"parents":[2147483647,0,0,1,1,2,2,3,3,4,4,5,5,6,6],"right_children":[2,4,6,8,10,12,14,-1,-1,-1,-1,-1,-1,-1,-1],"split_conditions":[5.97E2,5.07E2,6.3E2,7E0,1.0526316E-2,2.1E1,6.51E2,9.771053E-3,5.522181E-3,-1.8700135E-3,2.3177587E-3,-3.9495826E-3,9.654442E-4,-7.883428E-3,-1.3347797E-2],"split_indices":[0,0,0,4,10,4,0,0,0,0,0,0,0,0,0],"split_type":[0,0,0,0,0,0,0,0,0,0,0,0,0,0,0],"sum_hessian":[6.9657544E2,4.5528137E2,2.4129407E2,2.1517166E2,2.401097E2,1.1294713E2,1.2834694E2,4.201003E1,1.7316164E2,3.402959E1,2.0608011E2,9.931075E1,1.3636375E1,6.947738E1,5.8869556E1],"tree_param":{"num_deleted":"0","num_feature":"12","num_nodes":"15","size_leaf_vector":"1"}},{"base_weights":[1.7746763E-2,3.1952742E-1,-9.007994E-1,5.679504E-1,-1.9854415E-2,-5.296309E-1,-1.2080806E0,1.1262366E-2,5.3284345E-3,8.083163E-4,-1.3947627E-3,-3.073068E-3,-6.3375602E-3,-9.15476E-3,-1.3373617E-2],"categories":[],"categories_nodes":[],"categories_segments":[],"categories_sizes":[],"default_left":[0,0,0,0,0,0,0,0,0,0,0,0,0,0,0],"id":75,"left_children":[1,3,5,7,9,11,13,-1,-1,-1,-1,-1,-1,-1,-1],"loss_changes":[1.9421198E2,4.4473415E1,1.8801987E1,5.067894E0,2.7184343E0,1.5863743E0,1.7050171E0,0E0,0E0,0E0,0E0,0E0,0E0,0E0,0E0],"parents":[2147483647,0,0,1,1,2,2,3,3,4,4,5,5,6,6],"right_children":[2,4,6,8,10,12,14,-1,-1,-1,-1,-1,-1,-1,-1],"split_conditions":[6.18E2,5.47E2,6.41E2,2.31E2,5.88E2,3.3333334E-1,6.51E2,1.1262366E-2,5.3284345E-3,8.083163E-4,-1.3947627E-3,-3.073068E-3,-6.3375602E-3,-9.15476E-3,-1.3373617E-2],"split_indices":[0,0,0,0,0,11,0,0,0,0,0,0,0,0,0],"split_type":[0,0,0,0,0,0,0,0,0,0,0,0,0,0,0],"sum_hessian":[6.975643E2,5.2579645E2,1.717678E2,3.0299664E2,2.2279979E2,7.964686E1,9.212096E1,1.5168039E1,2.878286E2,1.21239E2,1.015608E2,2.7294868E1,5.2351986E1,3.1943817E1,6.017714E1],"tree_param":{"num_deleted":"0","num_feature":"12","num_nodes":"15","size_leaf_vector":"1"}},{"base_weights":[-2.7931951E-2,2.8505045E-1,-9.700377E-1,4.4173592E-1,-1.424631E-1,-6.202914E-1,-1.2262223E0,7.1871546E-3,3.4767862E-3,-1.612824E-4,-4.0167216E-3,-4.1241683E-3,-7.4978513E-3,-1.0186656E-2,-1.33879315E-2],"categories":[],"categories_nodes":[],"categories_segments":[],"categories_sizes":[],"default_left":[0,0,0,0,0,0,0,0,0,0,0,0,0,0,0],"id":76,"left_children":[1,3,5,7,9,11,13,-1,-1,-1,-1,-1,-1,-1,-1],"loss_changes":[2.07351E2,3.5459564E1,1.4570419E1,9.700005E0,4.664439E0,1.6135426E0,2.8327942E-1,0E0,0E0,0E0,0E0,0E0,0E0,0E0,0E0],"parents":[2147483647,0,0,1,1,2,2,3,3,4,4,5,5,6,6],"right_children":[2,4,6,8,10,12,14,-1,-1,-1,-1,-1,-1,-1,-1],"split_conditions":[6.18E2,5.75E2,6.39E2,4.1E2,1.5E0,1.4209592E-2,6.52E2,7.1871546E-3,3.4767862E-3,-1.612824E-4,-4.0167216E-3,-4.1241683E-3,-7.4978513E-3,-1.0186656E-2,-1.33879315E-2],"split_indices":[0,0,0,0,7,10,0,0,0,0,0,0,0,0,0],"split_type":[0,0,0,0,0,0,0,0,0,0,0,0,0,0,0],"sum_hessian":[7.0030585E2,5.2645526E2,1.738506E2,3.8522046E2,1.4123479E2,7.5672935E1,9.8177666E1,9.5127495E1,2.90093E2,9.602626E1,4.5208523E1,3.145534E1,4.4217594E1,3.9824127E1,5.835354E1],"tree_param":{"num_deleted":"0","num_feature":"12","num_nodes":"15","size_leaf_vector":"1"}},{"base_weights":[4.4319485E-3,7.2195916E-3,-5.7937175E-2,1.8791547E-2,-3.1570697E-1,4.9795797E-3,2.1707825E-5,-3.6800634E-3,-3.4628618E-5],"categories":[],"categories_nodes":[],"categories_segments":[],"categories_sizes":[],"default_left":[0,0,0,0,0,0,0,0,0],"id":77,"left_children":[1,-1,3,5,7,-1,-1,-1,-1],"loss_changes":[3.0877253E1,0E0,1.2566007E1,3.9061549E0,2.377696E0,0E0,0E0,0E0,0E0],"parents":[2147483647,0,0,2,2,3,3,4,4],"right_children":[2,-1,4,6,8,-1,-1,-1,-1],"split_conditions":[5E0,7.2195916E-3,1.1E1,1.25E0,2.5E0,4.9795797E-3,2.1707825E-5,-3.6800634E-3,-3.4628618E-5],"split_indices":[1,0,1,5,7,0,0,0,0],"split_type":[0,0,0,0,0,0,0,0,0],"sum_hessian":[6.8706866E2,5.3676987E1,6.3339166E2,4.8917322E2,1.4421848E2,1.4942756E1,4.7423044E2,1.23298676E2,2.0919804E1],"tree_param":{"num_deleted":"0","num_feature":"12","num_nodes":"9","size_leaf_vector":"1"}},{"base_weights":[3.2456235E-3,2.3384133E-1,-1.6487803E-1,3.805357E-1,-5.0034385E-2,-4.226636E-2,-2.4119818E-1,7.370766E-3,3.1314965E-3,2.2555437E-4,-1.4519698E-3,6.8867166E-4,-1.194275E-3,-6.8251305E-5,-2.8762203E-3],"categories":[],"categories_nodes":[],"categories_segments":[],"categories_sizes":[],"default_left":[0,0,0,0,0,0,0,0,0,0,0,0,0,0,0],"id":78,"left_children":[1,3,5,7,9,11,13,-1,-1,-1,-1,-1,-1,-1,-1],"loss_changes":[2.6844051E1,1.2186449E1,3.7322054E0,4.282631E0,7.011831E-1,1.3454279E0,2.679222E0,0E0,0E0,0E0,0E0,0E0,0E0,0E0,0E0],"parents":[2147483647,0,0,1,1,2,2,3,3,4,4,5,5,6,6],"right_children":[2,4,6,8,10,12,14,-1,-1,-1,-1,-1,-1,-1,-1],"split_conditions":[8E0,4.3333335E0,1.5E1,6E0,5.5E0,6.5E0,2.5E0,7.370766E-3,3.1314965E-3,2.2555437E-4,-1.4519698E-3,6.8867166E-4,-1.194275E-3,-6.8251305E-5,-2.8762203E-3],"split_indices":[2,5,4,4,5,5,5,0,0,0,0,0,0,0,0],"split_type":[0,0,0,0,0,0,0,0,0,0,0,0,0,0,0],"sum_hessian":[6.894257E2,2.904554E2,3.989703E2,1.9116109E2,9.929432E1,1.5395905E2,2.4501126E2,2.8016748E1,1.6314433E2,5.6976917E1,4.2317398E1,6.315684E1,9.08022E1,4.07919E1,2.0421936E2],"tree_param":{"num_deleted":"0","num_feature":"12","num_nodes":"15","size_leaf_vector":"1"}},{"base_weights":[6.3114385E-3,3.0573085E-1,-9.1466355E-1,5.3107464E-1,3.931368E-3,-6.6593444E-1,-1.3271373E-2,7.2395764E-3,3.733152E-3,-7.001551E-4,2.1505689E-3,-5.019405E-3,-8.337233E-3],"categories":[],"categories_nodes":[],"categories_segments":[],"categories_sizes":[],"default_left":[0,0,0,0,0,0,0,0,0,0,0,0,0],"id":79,"left_children":[1,3,5,7,9,11,-1,-1,-1,-1,-1,-1,-1],"loss_changes":[1.8937819E2,3.5241585E1,1.5960999E1,8.622635E0,3.5048356E0,2.3474083E0,0E0,0E0,0E0,0E0,0E0,0E0,0E0],"parents":[2147483647,0,0,1,1,2,2,3,3,4,4,5,5],"right_children":[2,4,6,8,10,12,-1,-1,-1,-1,-1,-1,-1],"split_conditions":[6.18E2,5.47E2,6.51E2,4.53E2,8E0,6.34E2,-1.3271373E-2,7.2395764E-3,3.733152E-3,-7.001551E-4,2.1505689E-3,-5.019405E-3,-8.337233E-3],"split_indices":[0,0,0,0,3,0,0,0,0,0,0,0,0],"split_type":[0,0,0,0,0,0,0,0,0,0,0,0,0],"sum_hessian":[6.8373444E2,5.1673883E2,1.669956E2,2.9519034E2,2.2154851E2,1.06622215E2,6.0373386E1,1.3038857E2,1.6480176E2,1.6482202E2,5.6726486E1,5.6948734E1,4.9673477E1],"tree_param":{"num_deleted":"0","num_feature":"12","num_nodes":"13","size_leaf_vector":"1"}},{"base_weights":[-7.096485E-3,4.102043E-1,-7.0892E-1,5.2703923E-1,8.3321124E-2,-3.7235638E-1,-1.1620121E0,7.5156256E-3,4.483236E-3,2.4174643E-3,-4.8406582E-4,-1.77447E-3,-4.8195054E-3,-9.071422E-3,-1.3093289E-2],"categories":[],"categories_nodes":[],"categories_segments":[],"categories_sizes":[],"default_left":[0,0,0,0,0,0,0,0,0,0,0,0,0,0,0],"id":80,"left_children":[1,3,5,7,9,11,13,-1,-1,-1,-1,-1,-1,-1,-1],"loss_changes":[2.0189987E2,1.6445755E1,3.8549896E1,5.1186295E0,2.4304366E0,3.0694408E0,2.3054047E0,0E0,0E0,0E0,0E0,0E0,0E0,0E0,0E0],"parents":[2147483647,0,0,1,1,2,2,3,3,4,4,5,5,6,6],"right_children":[2,4,6,8,10,12,14,-1,-1,-1,-1,-1,-1,-1,-1],"split_conditions":[5.92E2,5.55E2,6.35E2,4E0,5.73E2,3.3333334E-1,6.49E2,7.5156256E-3,4.483236E-3,2.4174643E-3,-4.8406582E-4,-1.77447E-3,-4.8195054E-3,-9.071422E-3,-1.3093289E-2],"split_indices":[0,0,0,3,0,11,0,0,0,0,0,0,0,0,0],"split_type":[0,0,0,0,0,0,0,0,0,0,0,0,0,0,0],"sum_hessian":[6.86391E2,4.3083932E2,2.5555165E2,3.1671887E2,1.1412045E2,1.4819954E2,1.0735212E2,7.888646E1,2.378324E2,5.124123E1,6.2879223E1,5.475262E1,9.3446915E1,4.3254677E1,6.409744E1],"tree_param":{"num_deleted":"0","num_feature":"12","num_nodes":"15","size_leaf_vector":"1"}},{"base_weights":[1.269389E-2,3.053133E-1,-1.10792354E-1,3.4291032E-1,-4.1172514E-3,-3.499592E-3,-2.0745921E-1,7.255489E-3,2.7705997E-3,3.0632774E-4,-2.5661683E-3,-3.3524823E-3,-9.80089E-4],"categories":[],"categories_nodes":[],"categories_segments":[],"categories_sizes":[],"default_left":[0,0,0,0,0,0,0,0,0,0,0,0,0],"id":81,"left_children":[1,3,5,7,-1,9,11,-1,-1,-1,-1,-1,-1],"loss_changes":[2.465329E1,5.669695E0,4.9763184E0,4.566204E0,0E0,1.9900367E0,3.4813051E0,0E0,0E0,0E0,0E0,0E0,0E0],"parents":[2147483647,0,0,1,1,2,2,3,3,5,5,6,6],"right_children":[2,4,6,8,-1,10,12,-1,-1,-1,-1,-1,-1],"split_conditions":[5E0,4E0,1.4E1,6E0,-4.1172514E-3,2E0,2E0,7.255489E-3,2.7705997E-3,3.0632774E-4,-2.5661683E-3,-3.3524823E-3,-9.80089E-4],"split_indices":[3,6,4,4,0,6,6,0,0,0,0,0,0],"split_type":[0,0,0,0,0,0,0,0,0,0,0,0,0],"sum_hessian":[6.7936096E2,2.0095616E2,4.784048E2,1.916879E2,9.268267E0,2.2747708E2,2.509277E2,2.5938581E1,1.6574931E2,2.0160898E2,2.5868107E1,1.1433779E2,1.3658992E2],"tree_param":{"num_deleted":"0","num_feature":"12","num_nodes":"13","size_leaf_vector":"1"}},{"base_weights":[-1.45834815E-2,3.1934744E-1,-8.512299E-1,5.1664656E-1,1.3301141E-2,-4.994135E-1,-1.1849557E0,5.4235705E-3,-3.2443698E-3,-2.7799853E-3,1.1802446E-3,-3.3090764E-3,-5.8945427E-3,-9.4229905E-3,-1.3160089E-2],"categories":[],"categories_nodes":[],"categories_segments":[],"categories_sizes":[],"default_left":[0,0,0,0,0,0,0,0,0,0,0,0,0,0,0],"id":82,"left_children":[1,3,5,7,9,11,13,-1,-1,-1,-1,-1,-1,-1,-1],"loss_changes":[1.9151219E2,2.9576221E1,2.2070877E1,6.705574E0,5.9551954E0,1.1910248E0,1.2963867E0,0E0,0E0,0E0,0E0,0E0,0E0,0E0,0E0],"parents":[2147483647,0,0,1,1,2,2,3,3,4,4,5,5,6,6],"right_children":[2,4,6,8,10,12,14,-1,-1,-1,-1,-1,-1,-1,-1],"split_conditions":[6.12E2,5.47E2,6.39E2,4E0,5E0,3.3333334E-1,6.51E2,5.4235705E-3,-3.2443698E-3,-2.7799853E-3,1.1802446E-3,-3.3090764E-3,-5.8945427E-3,-9.4229905E-3,